SVM-light Version V6.02
2 # kernel type
3 # kernel parameter -d 
0.2 # kernel parameter -g 
1 # kernel parameter -s 
1 # kernel parameter -r 
empty# kernel parameter -u 
64 # highest feature index 
5717 # number of training documents 
1404 # number of support vectors plus 1 
1.0136893 # threshold b, each following line is a SV (starting with alpha*y)
-0.0063839936162269281250125629867398 1:0.197651 2:0.018890999 5:0.017325999 6:0.228743 7:0.00085100002 10:0.12514301 11:0.187177 15:0.030999999 16:0.00081100001 18:1.1e-05 21:8.6e-05 22:0.011731 23:0.002046 26:0.0049939998 27:0.053165998 28:0.001366 31:0.026783001 32:0.037726 38:2.9000001e-05 42:0.000114 43:0.0079309996 44:0.00036599999 47:0.002474 48:0.017302999 59:4.6000001e-05 60:6.0000002e-06 63:0.000206 64:0.026023 #
0.050000000000000002775557561562891 1:0.084767997 2:0.032832 3:5.3e-05 4:3.7000002e-05 5:0.00078900001 6:0.020507 7:0.001387 11:9.1000002e-05 12:2.7e-05 17:0.0025760001 18:0.002747 19:4.8000002e-05 20:1.1e-05 21:0.001941 22:0.11064 23:0.030596999 26:0.0021009999 27:0.049552001 28:0.0037070001 32:0.00067199999 33:3.2e-05 37:0.00031500001 38:0.003429 39:0.0022189999 41:2.1e-05 42:0.003456 43:0.417328 44:0.0056159999 47:0.001253 48:0.0044849999 54:4.9999999e-06 58:0.00019200001 59:0.0034719999 60:0.00083700003 63:0.0034030001 64:0.20885301 #
-0.020451947191631458800031850842061 1:0.088155001 2:0.0076370002 3:0.0062079998 4:0.001504 5:0.012069 6:0.027860999 7:0.000128 8:0.00057600002 10:4.3e-05 11:2.1e-05 17:0.0083999997 18:0.003637 19:0.0012000001 20:0.00062900002 21:0.030059 22:0.083851002 23:0.0069920002 24:0.0059199999 26:0.0084210001 27:0.025248 28:8.5e-05 35:4.9999999e-06 37:0.003611 38:0.012853 39:0.0013229999 40:0.013579 41:1.1e-05 42:0.041499 43:0.28461301 44:0.0047570001 46:4.9999999e-06 47:0.0013229999 48:0.001605 58:0.000416 59:0.004437 60:0.0021009999 62:0.0030400001 63:0.25064 64:0.055535998 #
0.050000000000000002775557561562891 1:0.138078 2:0.039694 3:0.00057099998 5:0.0071479999 6:0.028182 7:0.014868 8:4.7000001e-05 10:0.00012500001 11:0.00013 12:0.000566 16:0.00014 17:0.0044419998 18:0.000182 21:0.032067999 22:0.023719 23:0.003247 24:4.2e-05 25:0.000208 26:0.00080500002 27:0.001558 28:0.00013 31:4.9999999e-06 37:0.14229099 38:0.0073919999 39:0.000197 41:0.004551 42:0.011325 43:0.007522 44:0.000208 46:4.9999999e-06 47:0.000187 48:0.00038400001 53:0.113652 54:0.00058699999 57:0.063028999 58:0.32414001 59:0.001558 60:9.9999997e-06 62:0.000275 63:0.003605 64:0.023127001 #
-0.050000000000000002775557561562891 1:0.33042699 22:0.247703 43:0.15344299 64:0.26842701 #
0.050000000000000002775557561562891 1:0.013221 2:0.001189 6:0.000208 17:0.000352 18:0.001776 22:0.128949 23:0.077114999 26:9.6000003e-05 27:0.038132999 38:2.7e-05 39:0.002571 43:0.73624003 44:4.9999999e-06 59:0.000117 #
-0.049855866111266688989189788117073 1:0.46496499 2:0.15568 3:0.010208 4:0.0092000002 5:0.000432 6:0.071984001 7:0.026629001 8:0.003851 11:0.0025279999 12:0.0033549999 17:0.001029 18:0.0014290001 19:1.1e-05 21:0.00077899999 22:0.112656 23:0.095946997 24:0.001397 26:9.6000003e-05 27:0.0057970001 28:0.0050769998 32:0.00012300001 38:0.000245 39:6.9000002e-05 42:0.000352 43:0.003675 44:0.0078400001 47:5.9000002e-05 48:0.010651 59:5.3e-05 60:4.3e-05 63:0.000117 64:0.0037229999 #
0.050000000000000002775557561562891 1:0.90570098 2:0.075076997 3:5.3e-05 5:1.1e-05 6:0.007435 7:0.000165 17:0.00038899999 18:0.00013299999 21:0.00037299999 22:0.0042880001 23:0.003824 27:0.001541 28:0.000165 38:8.5e-05 42:3.2e-05 43:0.000139 44:0.00026100001 48:0.000101 58:4.9999999e-06 59:3.7000002e-05 60:4.9999999e-06 63:9.1000002e-05 64:8.5e-05 #
0.050000000000000002775557561562891 22:0.007497 23:0.0022750001 26:0.013753 27:0.080153003 28:7.9999998e-05 32:3.2e-05 38:0.00056900003 39:0.001298 42:0.018847 43:0.68045098 44:0.072264001 47:7.2000003e-05 48:0.041498002 59:0.0036599999 60:0.000112 63:0.0041169999 64:0.073321 #
-0.050000000000000002775557561562891 1:0.186828 2:0.011148 3:0.0040480001 4:0.00037600001 5:0.002972 6:0.0063160001 7:0.0015519999 8:0.00084400002 9:4e-06 10:8e-06 12:3.6000001e-05 17:0.015976001 18:0.0082999999 19:0.00031199999 20:0.00089199998 21:0.035783999 22:0.119736 23:0.01254 24:0.001168 25:0.000132 26:0.0034320001 27:0.012856 28:0.00083600002 29:6.4e-05 31:0.00063600001 32:0.001028 33:8e-06 34:0.000212 35:0.000588 36:4.8000002e-05 37:2.8e-05 38:0.041143999 39:0.010264 40:0.00544 41:5.6000001e-05 42:0.030444 43:0.089015998 44:0.012944 45:0.0012760001 46:0.00047200001 47:0.002904 48:0.0085199997 54:1.2e-05 55:0.000136 56:0.00027600001 57:4e-06 58:4.4e-05 59:0.013148 60:0.027332 61:4e-06 62:9.9999997e-05 63:0.092759997 64:0.23499601 #
-0.0095493727367064323852119400726224 1:0.471531 22:0.14389899 43:0.226688 64:0.157883 #
0.050000000000000002775557561562891 1:0.853894 2:0.040778998 5:0.000252 6:0.038045 7:0.00041499999 17:0.000482 21:0.00048700001 22:0.014812 23:0.018929999 26:6.0000002e-06 27:0.017209999 28:0.000734 43:0.00047599999 44:0.006213 48:0.005961 64:0.001305 #
0.050000000000000002775557561562891 1:0.060139 2:0.0072690002 3:0.00065599999 4:0.00049599999 5:0.00093899999 6:0.00128 7:3.2e-05 8:9.1000002e-05 11:4.9999999e-06 12:1.1e-05 17:0.0144 18:0.0080530001 19:0.000256 20:9.6000003e-05 21:0.0061229998 22:0.108325 23:0.0083999997 24:0.000176 26:0.0052160001 27:0.0063840002 28:0.000107 32:3.7000002e-05 38:0.018650999 39:0.004251 40:4.8000002e-05 42:0.046314999 43:0.69886398 44:0.001509 47:0.0013229999 48:0.000149 59:5.9000002e-05 60:4.9999999e-06 63:4.3e-05 64:0.00029299999 #
-0.00047196135590969572060071612895626 1:0.501643 2:0.010592 3:0.001163 4:3.2e-05 5:0.00066700001 6:0.016235 7:0.0047789998 8:0.00021300001 9:7.5000004e-05 10:7.9999998e-05 11:0.0050130002 12:0.000272 15:3.2e-05 16:0.00019200001 17:0.002907 18:0.00023999999 19:7.5000004e-05 21:0.0024959999 22:0.061307002 23:0.0073279999 24:4.9999999e-06 26:0.001019 27:0.030784 28:0.0072690002 30:4.9999999e-06 31:3.7000002e-05 32:0.014597 33:4.9999999e-06 37:0.001045 38:0.0050240001 39:0.001088 40:4.9999999e-06 41:6.9000002e-05 42:0.003819 43:0.15350901 44:0.0020049999 47:0.00068300002 48:0.0093010003 53:0.00017100001 54:4.8000002e-05 57:9.1000002e-05 58:0.00067199999 59:0.039903998 60:0.001136 62:0.000112 63:0.013168 64:0.099087998 #
0.050000000000000002775557561562891 1:0.78465497 2:0.0024019999 3:1.8000001e-05 5:0.049423002 6:0.018468 7:0.00015599999 8:1.2e-05 9:0.0025770001 10:0.014889 11:0.00096700003 12:1.8000001e-05 13:1.2e-05 14:0.0014290001 15:0.001225 16:5.9999998e-05 17:0.026991 18:0.002691 21:0.006631 22:0.030455999 23:0.001321 24:6.0000002e-06 25:3.6000001e-05 26:0.0050149998 27:0.00382 28:5.9999998e-05 30:0.00028199999 31:0.001844 32:0.000505 33:0.001363 34:9.6000003e-05 35:6.0000002e-06 37:0.001778 38:0.013081 39:0.001255 41:1.8000001e-05 42:0.0029190001 43:0.0078440001 44:0.00046800001 46:1.8000001e-05 47:0.000787 48:0.00093099999 49:7.2000003e-05 53:0.00094300002 54:0.00038400001 55:0.000114 57:1.8000001e-05 58:0.001315 59:0.0057660001 60:0.00042 62:5.9999998e-05 63:0.00088299997 64:0.003489 #
-0.050000000000000002775557561562891 1:0.438474 22:0.206769 43:0.122517 64:0.23224001 #
-8.2361375319806029438041150569916e-07 1:0.096676998 2:0.0043469998 3:0.077141002 4:0.012341 5:0.0051569999 6:0.016404999 7:0.006571 8:0.0041919998 9:1.6e-05 10:0.0041069998 11:0.001285 12:0.0048270002 15:4.3e-05 16:0.00016 17:0.005541 18:0.001349 19:0.00065599999 20:0.00033099999 21:0.012592 22:0.184421 23:0.015024 24:0.0021550001 25:1.6e-05 26:0.0071729999 27:0.022677001 28:0.035323001 31:0.000955 32:0.0025599999 33:7.5000004e-05 34:7.5000004e-05 37:0.000336 38:0.011056 39:0.0021810001 40:0.00068300002 41:5.9000002e-05 42:0.008219 43:0.079643004 44:0.084971003 47:0.0021009999 48:0.061307002 53:4.8000002e-05 54:2.1e-05 55:5.3e-05 57:1.1e-05 58:0.00066700001 59:0.0064210002 60:0.001851 62:5.3e-05 63:0.0064480002 64:0.20968001 #
0.050000000000000002775557561562891 1:0.012192 2:0.001376 3:1.6e-05 5:0.000181 6:0.002757 7:0.00034100001 17:0.00090699998 18:0.00017100001 21:0.001072 22:0.372107 23:0.087188996 26:0.00021899999 27:0.0055789999 38:0.00057600002 39:9.6000003e-05 42:0.001045 43:0.51386702 44:4.3e-05 47:4.9999999e-06 59:0.000107 60:3.2e-05 63:5.9000002e-05 64:6.4e-05 #
-0.050000000000000002775557561562891 1:0.24702799 22:0.16971099 43:0.26269999 64:0.32056099 #
0.050000000000000002775557561562891 1:0.78144097 2:0.021297 3:6.0000002e-06 5:0.00039599999 6:0.032834999 7:0.010973 8:9.6000003e-05 12:4.8000002e-05 16:4.2e-05 17:1.2e-05 22:0.01164 23:0.015699999 24:6.0000002e-06 26:9.0000001e-05 27:0.018300001 28:0.069831997 32:6.0000002e-06 39:1.2e-05 43:0.0027749999 44:0.017464999 48:0.011441 60:1.8000001e-05 64:0.005568 #
0.050000000000000002775557561562891 21:8e-06 22:0.710226 23:0.0073660002 24:0.000226 26:0.00071699999 27:0.0050420002 28:0.000151 31:5.3e-05 32:0.000355 38:0.003789 39:0.013864 40:0.000204 42:0.00041499999 43:0.14949401 44:0.037025999 47:0.00071699999 48:0.0064079999 55:8e-06 56:5.3e-05 59:0.0082639996 60:0.038302001 63:0.000287 64:0.017026 #
-0.042310936640319596335757523775101 1:0.70036697 2:0.111494 3:0.00040399999 5:2.9999999e-05 6:0.148633 7:0.0084159998 17:0.002783 18:1.8000001e-05 21:0.01003 22:0.0031270001 23:0.013753 26:1.2e-05 27:0.000337 37:4.8000002e-05 38:9.6000003e-05 42:6.0000002e-06 43:0.000428 64:1.8000001e-05 #
0.050000000000000002775557561562891 1:0.73556799 2:0.032889001 3:7.7999997e-05 5:0.00088299997 6:0.014643 7:0.0044260002 8:1.8000001e-05 11:9.0000001e-05 12:7.7999997e-05 16:6.0000002e-06 17:0.026467999 18:0.0014590001 22:0.0045949998 23:0.0098259998 24:4.2e-05 26:0.00064300001 27:0.009087 28:0.026114 32:0.0084920004 33:0.012961 34:0.001249 38:0.00060700002 39:0.00019200001 40:6.0000002e-06 43:0.000264 44:0.0072010001 47:1.2e-05 48:0.067236997 49:0.002871 50:0.00097300002 53:9.0000001e-05 54:0.015183 55:0.00042 58:0.00042600001 59:0.006234 60:0.00045600001 63:0.0038620001 64:0.004348 #
-0.018899353785582620468552761394676 1:0.52410799 22:0.208234 43:0.19688 64:0.070777997 #
0.050000000000000002775557561562891 1:0.030149 2:0.015291 5:0.011003 6:0.050864 7:3.7000002e-05 17:0.0091040004 18:0.025242999 21:0.0055149999 22:0.70802701 23:0.006571 26:0.001435 27:0.005845 28:9.6000003e-05 32:1.6e-05 38:0.0093440004 39:0.00094900001 42:0.0043469998 43:0.037616 44:0.000635 47:5.3e-05 48:0.000757 59:0.0027729999 60:2.7e-05 63:0.003083 64:0.071221001 #
-0.050000000000000002775557561562891 1:0.61945301 22:0.139369 43:0.074263997 64:0.166913 #
-0.02802624918355123284641194914002 1:0.43969601 2:0.006821 3:0.000325 4:0.00029900001 5:0.0065810001 6:0.014197 7:0.018426999 8:1.1e-05 11:0.0063629998 12:0.0054990002 16:2.1e-05 17:0.016767999 18:0.000443 19:3.2e-05 20:5.3e-05 21:0.027403001 22:0.072875001 23:0.00031500001 24:4.8000002e-05 26:0.001648 27:0.000933 28:0.001355 32:0.000619 33:0.00067199999 37:0.00087500003 38:0.011968 39:0.00031500001 40:3.2e-05 41:1.6e-05 42:0.014155 43:0.017279999 44:0.00047500001 47:0.00061300001 48:0.00082700001 49:4.9999999e-06 54:0.000101 58:0.001083 59:0.014171 60:0.000149 63:0.015876999 64:0.30065599 #
0.050000000000000002775557561562891 1:0.709979 2:0.028543999 3:0.053893 4:0.013648 5:0.00074699998 6:0.0094609996 7:0.0084429998 8:0.000197 9:4.9999999e-06 10:4.9999999e-06 11:0.000107 12:0.000325 16:4.9999999e-06 17:0.00042699999 18:0.00079999998 19:0.000155 20:1.6e-05 21:0.00019200001 22:0.016789 23:0.038869001 24:0.000485 26:7.5000004e-05 27:0.015924999 28:0.0044269999 31:4.9999999e-06 32:7.5000004e-05 34:4.9999999e-06 38:0.00069299998 39:0.00070400001 40:4.9999999e-06 42:0.00014400001 43:0.043712001 44:0.0027310001 47:6.4e-05 48:0.00067699997 58:2.1e-05 59:0.0032909999 60:0.002656 63:0.00014400001 64:0.041552 #
0.050000000000000002775557561562891 1:0.045690998 2:0.0083410004 3:0.0025919999 4:0.0029869999 5:0.00016 6:0.001749 7:0.00027700001 8:6.4e-05 11:2.1e-05 12:1.6e-05 15:4.9999999e-06 17:0.0053920001 18:0.00074699998 19:0.00033099999 20:0.001771 21:0.006453 22:0.60106701 23:0.021397 24:0.002357 26:0.0020590001 27:0.099040002 28:9.6000003e-05 32:1.1e-05 37:0.00039500001 38:0.0048159999 39:0.000581 40:0.00029900001 42:0.003029 43:0.14711501 44:0.0079089999 47:5.9000002e-05 48:0.001493 53:2.1e-05 54:1.1e-05 57:6.4e-05 58:0.000235 59:0.002229 60:0.000208 63:0.002021 64:0.026891001 #
-0.050000000000000002775557561562891 1:0.620507 2:0.017957 5:6.4e-05 6:0.101888 7:0.00026100001 10:0.000117 11:0.0020959999 16:1.6e-05 18:4.9999999e-06 22:0.00036800001 23:4.3e-05 26:3.7000002e-05 27:0.014597 28:0.00086899998 31:0.0023950001 32:0.109296 43:4.8000002e-05 44:1.1e-05 47:1.1e-05 48:0.111365 64:0.018048 #
0.050000000000000002775557561562891 1:0.723548 2:0.016886 5:0.000681 6:0.04056 7:0.003361 11:0.00025300001 17:7.7999997e-05 18:6.0000002e-06 21:0.00033099999 22:0.053367 23:0.010916 25:1.8000001e-05 26:0.000313 27:0.016318999 28:4.8000002e-05 32:6.0000002e-06 38:2.4000001e-05 41:1.8000001e-05 42:0.00016900001 43:0.043963999 44:0.0046930001 46:1.2e-05 47:0.00017499999 48:0.01162 58:6.0000002e-06 59:1.8000001e-05 62:2.4000001e-05 63:0.000229 64:0.072355002 #
-0.050000000000000002775557561562891 1:0.36553499 2:0.035085 3:0.013676 4:0.000352 5:0.00031 6:0.011606 7:0.0070139999 8:0.0063379998 11:4.2e-05 17:0.000141 21:0.001535 22:0.020577 23:0.0041550002 24:0.012634 26:0.00052100001 27:0.020352 28:0.006761 32:1.4e-05 38:0.00029600001 42:0.0046199998 43:0.023099 44:0.0098029999 47:0.00056299998 48:0.042661998 59:0.000197 63:0.00107 64:0.411042 #
0.050000000000000002775557561562891 1:0.057541002 2:0.00038400001 3:0.000155 4:1.6e-05 5:0.061829001 6:0.15635701 7:0.00012300001 8:3.7000002e-05 17:0.00046400001 18:2.7e-05 19:0.00013299999 20:3.2e-05 21:0.0038030001 22:0.54396802 23:0.0028639999 24:0.0054239999 26:0.001243 27:0.003675 28:0.00060299999 37:4.9999999e-06 38:0.001424 39:5.3e-05 40:0.000432 42:0.0033170001 43:0.034495998 44:0.017019 47:0.00044800001 48:0.001227 59:0.0056909998 60:0.00035700001 63:0.009269 64:0.087583996 #
-0.020746422170934919471108059951803 1:0.31823 2:0.039326001 3:0.0023050001 4:0.00050800003 5:0.020979 6:0.044512998 7:0.006091 8:0.000225 10:0.00031599999 11:0.002909 12:0.00029900001 15:1.1e-05 16:2.1e-05 17:9.1000002e-05 18:5.3e-05 19:1.6e-05 21:0.00072700001 22:0.020599 23:0.0044490001 24:0.00017100001 25:4.3e-05 26:0.015086 27:0.364979 28:0.001759 31:0.00091399997 32:0.001417 37:4.3e-05 38:4.3e-05 39:4.8000002e-05 40:4.9999999e-06 41:0.000128 42:0.00023000001 43:0.122781 44:0.0024059999 45:4.9999999e-06 46:1.1e-05 47:0.0076359999 48:0.015214 57:5.9000002e-05 59:3.7000002e-05 60:2.1e-05 61:2.1e-05 62:4.9999999e-06 63:0.00036400001 64:0.0049040001 #
-0.050000000000000002775557561562891 1:0.30513099 2:0.033557002 3:0.003701 4:6.4e-05 5:0.000581 6:0.012469 7:0.016656 8:0.0040159998 11:0.000107 12:0.001381 16:1.1e-05 17:0.131813 18:0.0025549999 19:0.001941 20:4.9999999e-06 21:0.191456 22:0.064613 23:0.024555 24:0.000635 25:1.6e-05 26:0.00027700001 27:0.009819 28:0.0038670001 31:1.1e-05 32:0.00045299999 33:0.000432 34:2.7e-05 37:0.059898999 38:0.052852999 39:0.00056499999 40:3.2e-05 41:0.000176 42:0.0038350001 43:0.022064 44:0.007189 45:4.9999999e-06 46:0.000139 47:0.00025099999 48:0.003573 53:0.00038899999 54:2.1e-05 55:4.9999999e-06 57:0.001605 58:0.00376 59:0.0085709998 60:0.000235 61:0.00028800001 62:0.00064500002 63:0.0042349999 64:0.019515 #
0.050000000000000002775557561562891 1:0.71234101 2:0.054267 3:0.001653 4:0.00028800001 5:0.001883 6:0.043722998 7:0.0048639998 8:0.000512 11:4.3e-05 12:0.000224 13:3.2e-05 16:7.9999998e-05 17:0.00544 18:0.00070899999 19:0.000155 20:4.9999999e-06 21:0.011829 22:0.052538998 23:0.015717 24:6.4e-05 26:0.00047500001 27:0.016704001 28:0.00061300001 29:3.2e-05 31:4.9999999e-06 32:3.7000002e-05 33:1.1e-05 34:1.1e-05 37:4.9999999e-06 38:0.0036210001 39:0.00013299999 41:4.9999999e-06 42:0.002997 43:0.028287999 44:0.0067949998 47:0.00021899999 48:0.010181 49:4.9999999e-06 50:4.9999999e-06 59:0.000117 60:4.3e-05 63:0.000139 64:0.023189001 #
0.050000000000000002775557561562891 1:0.058741 2:0.016240001 3:1.6e-05 5:0.006507 6:0.032421 7:4.3e-05 10:5.9000002e-05 17:0.0047200001 18:0.00232 19:4.9999999e-06 21:0.0042190002 22:0.51115698 23:0.059140999 24:2.7e-05 26:0.02224 27:0.074911997 28:3.7000002e-05 32:1.6e-05 38:0.051061001 39:0.003333 42:0.005264 43:0.118331 44:0.003429 47:0.001019 48:0.004373 58:4.9999999e-06 59:0.002139 60:0.00014400001 63:0.001285 64:0.016795 #
-0.049999901817756153832306154072285 1:0.19730701 2:0.014875 6:0.001611 17:0.095711999 18:0.0052370001 21:0.011659 22:0.18814901 23:0.0069010002 26:0.00016 27:0.0048110001 38:0.061668999 39:0.00062900002 42:0.0052430001 43:0.126459 44:0.00030399999 47:0.002875 48:0.0024369999 59:0.040139001 60:0.000432 63:0.0042719999 64:0.22912 #
0.050000000000000002775557561562891 1:0.61678302 2:5.9000002e-05 3:5.3e-05 4:2.4000001e-05 5:0.004249 6:0.00075399998 7:0.000119 8:0.000101 9:1.2e-05 10:0.000398 11:0.001258 12:0.00090799999 15:6.5e-05 16:0.001086 17:0.066515997 18:1.2e-05 20:6.0000002e-06 21:0.21248101 22:0.000356 23:2.9999999e-05 24:0.000113 25:0.0043859999 26:0.000481 27:0.00052200002 28:0.00031999999 31:0.00025499999 32:0.002665 33:1.2e-05 37:0.003887 38:3.6000001e-05 41:0.014599 42:0.011448 43:0.000172 44:4.2e-05 46:4.7000001e-05 47:0.00026100001 48:0.00068200001 57:5.3e-05 58:0.0010329999 59:1.8000001e-05 61:1.8000001e-05 62:0.002421 63:0.001056 64:0.050202001 #
-0.0015510824559957763629780558289895 1:0.185167 2:0.035224002 3:4.2e-05 5:0.014687 6:0.036161002 7:0.001724 9:4.9999999e-06 10:0.000151 11:9.9999997e-06 12:4.9999999e-06 17:0.0073330002 18:0.000589 21:0.012214 22:0.072624996 23:0.111198 24:0.000109 25:0.00049499999 26:0.0032550001 27:0.066646002 28:0.000302 33:0.00015599999 34:4.9999999e-06 35:4.9999999e-06 37:0.00151 38:0.01651 39:0.0033120001 40:4.9999999e-06 41:0.00043799999 42:0.009052 43:0.173208 44:0.067849003 46:0.000109 47:0.00096899999 48:0.054327998 53:6.8000001e-05 54:7.7999997e-05 55:9.8999997e-05 56:9.9999997e-06 57:2.1e-05 58:0.001656 59:0.017890999 60:0.00112 62:0.000104 63:0.011958 64:0.091594003 #
0.050000000000000002775557561562891 1:0.0088170003 2:0.000108 5:0.0027389999 6:0.185003 17:0.0056159999 18:0.000979 21:0.0059400001 22:0.27618 23:0.00091900001 26:0.001051 27:0.0021800001 33:6.0000002e-06 37:0.020895001 38:0.0078560002 39:0.000186 40:6.0000002e-06 41:0.0057299999 42:0.015027 43:0.419934 44:0.000222 47:0.00047999999 48:0.000589 53:2.4000001e-05 57:0.013255 58:0.0083720004 59:0.002991 60:8.3999999e-05 62:0.000126 63:0.003489 64:0.011195 #
-0.050000000000000002775557561562891 1:0.65797597 2:0.00070899999 3:6.0000002e-06 5:0.020787001 6:0.0020419999 7:9.0000001e-05 10:4.2e-05 11:0.000102 15:0.0029430001 16:7.2000003e-05 17:0.034685001 18:1.8000001e-05 21:0.20236599 22:0.024383999 23:0.00019799999 26:0.000174 27:0.0023419999 28:2.4000001e-05 31:0.000114 32:0.00018 38:0.000138 39:2.9999999e-05 42:0.00023400001 43:0.004679 44:0.000174 47:0.00019200001 48:0.0028649999 59:0.000168 60:1.2e-05 63:2.9999999e-05 64:0.042222001 #
0.050000000000000002775557561562891 1:0.73374802 2:0.014811 3:0.00030000001 4:0.00046800001 5:0.018817 6:0.017724 7:0.000114 8:2.4000001e-05 11:6.0000002e-06 12:1.8000001e-05 17:0.012312 18:0.0048770001 20:2.4000001e-05 21:0.013105 22:0.176204 23:0.000306 24:0.000102 26:0.000114 27:0.000174 28:0.000126 32:0.000108 37:0.00027600001 38:0.001453 39:6.0000002e-06 41:2.4000001e-05 42:0.00073299999 43:0.000138 44:2.4000001e-05 47:3.6000001e-05 48:7.2000003e-05 55:6.0000002e-06 57:1.2e-05 58:0.000168 59:0.000162 60:1.8000001e-05 63:0.00014400001 64:0.003243 #
-0.049976284428929318437440088018775 1:0.29181901 2:0.028416 3:0.0072320001 4:0.001371 5:0.0034930001 6:0.011216 7:0.017563 8:0.022500999 10:2.1e-05 11:0.000128 12:0.00041099999 17:0.0058129998 18:0.0046720002 19:0.00030399999 20:1.6e-05 21:0.00376 22:0.083407998 23:0.033103999 24:0.065669 26:0.0028589999 27:0.015243 28:0.066459 31:4.9999999e-06 32:0.00050099997 33:0.000101 34:2.7e-05 37:0.000187 38:0.005285 39:0.0029490001 40:0.000619 42:0.003605 43:0.037055999 44:0.079407997 46:4.9999999e-06 47:0.00083700003 48:0.048239999 49:4.9999999e-06 53:1.6e-05 54:0.000176 55:4.8000002e-05 58:0.000203 59:0.0039039999 60:0.001621 63:0.002053 64:0.147669 #
0.050000000000000002775557561562891 1:0.017088 2:0.011883 3:0.043499 4:0.00060299999 5:0.0025170001 6:0.030128 7:0.002288 8:4.8000002e-05 10:0.001573 11:0.001296 17:0.0046879998 18:0.000971 19:0.0014290001 20:3.7000002e-05 21:0.003205 22:0.117221 23:0.013685 24:7.9999998e-05 26:0.0058880001 27:0.043979 28:6.4e-05 31:1.1e-05 32:1.1e-05 33:7.5000004e-05 34:4.3e-05 37:0.002501 38:0.020447999 39:0.0032850001 40:1.6e-05 42:0.017941 43:0.44506699 44:0.004917 47:0.00078900001 48:0.002784 54:2.7e-05 55:2.1e-05 58:5.3e-05 59:0.12694401 60:0.00090099999 63:0.0049390001 64:0.067056 #
-0.0097379988943493422937081049894914 1:0.354426 2:0.050678998 3:0.000462 4:6.6000001e-05 5:5.9999998e-05 6:0.132649 7:0.10427 8:0.0083419997 11:0.0087989997 12:0.030637 16:1.8000001e-05 22:0.015616 23:0.019153001 24:2.9999999e-05 26:0.006943 27:0.212372 28:0.025350999 32:3.6000001e-05 43:0.029598 44:1.2e-05 48:6.6000001e-05 64:0.00041400001 #
0.050000000000000002775557561562891 1:0.68000001 2:0.001266 5:1.8000001e-05 6:0.00053199998 7:0.000202 8:4.3e-05 12:0.00017100001 16:1.8000001e-05 17:0.039724998 18:0.039106999 21:7.3000003e-05 22:0.062765002 23:0.0073389998 24:6.0000002e-06 26:1.2e-05 27:0.013804 28:0.000703 32:3.1e-05 38:0.00032399999 39:0.00017100001 42:2.4000001e-05 43:0.027437 44:0.0072479998 47:4.3e-05 48:0.016856 59:4.3e-05 60:4.3e-05 64:0.101994 #
-0.050000000000000002775557561562891 1:0.007675 2:0.0014609999 5:2.7e-05 6:0.000149 17:0.0043839999 18:0.00043700001 21:0.0047570001 22:0.19809601 23:0.003515 26:0.00069299998 27:0.0036849999 38:0.072719999 39:0.000688 42:0.079515003 43:0.26308301 44:0.001723 47:0.000112 48:0.001024 59:0.123675 60:4.3e-05 63:0.117765 64:0.114773 #
0.050000000000000002775557561562891 1:0.017285001 2:0.017116999 3:4.8000002e-05 5:0.001982 6:0.06397 7:0.001922 8:2.9999999e-05 10:1.2e-05 11:1.2e-05 12:2.9999999e-05 17:0.000673 18:0.001249 19:6.0000002e-06 21:0.001351 22:0.440979 23:0.007952 24:4.8000002e-05 25:0.000444 26:0.002444 27:0.012895 28:7.7999997e-05 32:1.8000001e-05 37:1.2e-05 38:0.0027749999 39:0.00037200001 41:3.6000001e-05 42:0.0074530002 43:0.094168 44:0.00030000001 46:6.0000002e-06 47:0.00085900002 48:0.00040200001 59:0.024571 60:1.2e-05 63:0.17236 64:0.12612601 #
-0.050000000000000002775557561562891 1:0.56699699 2:0.013525 3:0.001867 4:0.00056000001 5:0.002176 6:0.047876999 7:0.0025810001 10:1.6e-05 11:0.000416 12:4.9999999e-06 17:0.044688001 18:0.00055499998 20:4.9999999e-06 21:0.049504001 22:0.071098998 23:0.0030720001 24:6.9000002e-05 25:2.7e-05 26:0.00092800002 27:0.0061280001 28:0.001339 31:2.1e-05 32:0.000208 33:0.000149 34:4.9999999e-06 37:0.101941 38:0.011365 39:0.000256 40:3.7000002e-05 41:2.1e-05 42:0.0064960001 43:0.031893 44:0.0049069999 47:0.00039500001 48:0.003152 49:1.1e-05 53:4.9999999e-06 54:1.1e-05 58:3.2e-05 59:0.012747 60:0.000117 63:0.001739 64:0.011056 #
-0.044790126915367378668264564112178 1:0.251003 2:4.9999999e-06 5:3.2e-05 17:0.12557299 18:0.000187 21:0.088532999 22:0.004555 26:0.000149 33:0.00045299999 34:4.9999999e-06 37:0.054299001 38:0.039951999 39:3.7000002e-05 41:0.000181 42:0.051332999 43:0.001984 46:1.6e-05 47:0.001723 54:0.000101 58:0.083515003 59:0.003669 62:0.016096 63:0.186864 64:0.089732997 #
-0.050000000000000002775557561562891 1:0.144931 2:0.000352 3:6.6000001e-05 5:0.00029299999 6:0.00012500001 7:1.2e-05 17:0.18533701 18:6.0000002e-06 21:0.038118999 22:0.00477 23:0.000466 24:6.0000002e-06 25:1.8000001e-05 26:0.000245 27:0.000113 33:0.012346 37:0.15389299 38:0.013725 39:4.8000002e-05 41:0.013206 42:0.067993999 43:0.013421 44:0.000179 46:6.0000002e-06 47:0.000466 48:0.000119 53:0.011678 54:1.2e-05 57:0.029224001 58:0.037115999 59:0.051188 60:0.000155 62:0.0064360001 63:0.050728001 64:0.16320001 #
0.050000000000000002775557561562891 1:0.67028302 2:0.019195 3:0.001952 5:0.0013229999 6:0.002112 7:1.6e-05 17:0.030816 18:0.0019950001 19:0.0025869999 20:0.001589 21:0.054827001 22:0.069348998 23:0.001227 24:3.7000002e-05 26:0.00054400001 27:0.00208 28:2.1e-05 32:1.1e-05 33:9.6000003e-05 34:2.1e-05 35:2.1e-05 36:7.9999998e-05 37:0.028240001 38:0.01296 39:0.00034100001 40:0.000187 41:0.00069299998 42:0.0062830001 43:0.011349 44:0.00047999999 47:0.000245 48:0.00078900001 53:4.9999999e-06 54:8.5e-05 55:4.9999999e-06 56:1.1e-05 57:0.00059700001 58:0.0036319999 59:0.0032800001 60:0.00033099999 61:2.7e-05 62:0.001803 63:0.0016430001 64:0.066831999 #
0.050000000000000002775557561562891 1:0.66943502 2:0.025814001 5:0.00052900001 6:0.028666999 17:0.00026999999 18:3.6000001e-05 21:0.00027600001 22:0.090660997 23:0.01421 26:0.00015000001 27:0.017646 38:9.6000003e-05 39:5.9999998e-05 42:0.00012 43:0.072389998 44:0.012661 47:0.000102 48:0.010174 59:9.0000001e-05 60:4.2e-05 63:5.4e-05 64:0.056517001 #
-0.050000000000000002775557561562891 1:0.203096 2:0.026881 5:0.000272 6:0.01548 17:0.011603 18:0.014468 21:0.00136 22:0.46542799 23:0.0049769999 26:0.0080209998 27:0.010191 38:0.003339 39:0.00012700001 42:0.016891999 43:0.19299801 44:4.6000001e-05 47:0.0035590001 48:0.00015599999 59:0.00079299998 60:6.0000002e-06 63:0.0099710003 64:0.010336 #
-0.050000000000000002775557561562891 1:0.035532001 2:0.016186001 3:0.00039599999 5:0.001249 6:0.048553001 7:0.001309 17:8.3999999e-05 18:9.6000003e-05 21:5.4e-05 22:0.38583201 23:0.027021 24:6.0000002e-06 26:0.00062499999 27:0.022847001 38:0.00018 39:0.000228 42:0.000162 43:0.092005998 44:0.002757 47:0.00055900001 48:0.0098860003 59:0.006877 60:0.000108 63:0.015207 64:0.33223999 #
-0.050000000000000002775557561562891 1:0.40014401 2:0.027824 3:0.000933 5:0.00013299999 6:0.0052319998 7:0.023664 8:0.00086899998 12:4.9999999e-06 17:0.016896 18:0.00028800001 19:4.3e-05 21:0.0068000001 22:0.019835001 23:0.014475 24:0.0032639999 26:1.6e-05 27:0.0064960001 28:0.036672 37:4.9999999e-06 38:0.0045489999 39:7.9999998e-05 40:1.6e-05 42:0.004437 43:0.0038399999 44:0.016644999 47:4.9999999e-06 48:0.0067520002 58:0.000149 59:0.0012910001 60:5.9000002e-05 63:0.001344 64:0.397237 #
0.050000000000000002775557561562891 1:0.63497603 2:0.035147 3:0.0072639999 4:0.00016 5:0.00085900002 6:0.0043950002 7:0.007125 8:4.9999999e-06 17:0.010315 18:0.001157 19:0.00012300001 21:0.053583998 22:0.024395 23:0.0035999999 25:4.8000002e-05 26:0.00065100001 27:0.001707 28:9.1000002e-05 32:4.9999999e-06 37:0.103888 38:0.026736001 39:0.000379 41:0.013163 42:0.0074029998 43:0.022901 44:0.001136 45:0.000229 46:0.00047999999 47:0.002048 48:0.0038989999 58:4.9999999e-06 59:0.00065599999 60:0.00019200001 61:4.9999999e-06 62:9.6000003e-05 63:0.002629 64:0.028549001 #
0.050000000000000002775557561562891 1:0.63012499 2:0.03565 3:0.00044999999 4:1.9999999e-05 5:0.0087099997 6:0.020085 7:0.00021499999 8:0.00012 12:9.9999997e-06 17:0.00069000002 18:4.9999999e-05 19:9.0000001e-05 21:0.00134 22:0.04535 23:0.00113 24:9.9999997e-06 26:0.0013 27:0.00133 28:2.4999999e-05 32:4.9999999e-06 38:0.000325 39:3.5000001e-05 42:0.00226 43:0.035854999 44:0.00017499999 47:0.018955 48:0.0042500002 58:4.9999999e-06 59:0.01002 63:0.040070001 64:0.14134499 #
0.050000000000000002775557561562891 1:0.62837601 2:0.018831 3:0.000124 4:2.8e-05 5:0.00061799999 6:0.011399 7:0.00136 9:1.1e-05 10:0.000197 11:0.000157 12:0.000124 16:0.000124 17:0.0087869996 18:0.001961 19:0.000101 21:0.01027 22:0.062073 23:0.043747 24:0.00051099999 26:0.00058400002 27:0.010399 28:0.003399 30:2.8e-05 32:0.000157 33:6.0000002e-06 38:0.0048759999 39:0.001938 42:0.003612 43:0.090084001 44:0.01173 47:0.000596 48:0.00291 55:6.0000002e-06 59:0.0030789999 60:0.001264 63:0.00182 64:0.074712999 #
-2.7959948756262065217015333473682e-07 1:0.099914998 2:0.019616 3:0.000165 5:0.0053920001 6:0.017973 7:0.024288001 8:0.0013070001 9:4.9999999e-06 10:5.3e-05 11:9.1000002e-05 12:3.2e-05 17:0.005653 18:0.002416 19:8.5e-05 21:0.001152 22:0.153376 23:0.052784 24:0.00088499999 25:4.9999999e-06 26:0.002021 27:0.068164997 28:0.00085900002 37:2.1e-05 38:0.0046930001 39:0.0016749999 40:0.000267 42:0.00062900002 43:0.29269901 44:0.027696 46:1.1e-05 47:0.010539 48:0.030229 59:0.00232 60:0.00088499999 63:0.001099 64:0.17099699 #
0.050000000000000002775557561562891 18:4.9999999e-06 22:0.438261 23:0.076517001 24:0.0028530001 26:0.000187 27:0.041131001 28:0.001195 32:4.9999999e-06 38:0.001707 39:0.011275 40:0.0010930001 42:0.00031999999 43:0.175936 44:0.032832 47:0.000208 48:0.011461 59:0.0080530001 60:0.0031089999 63:0.00050700002 64:0.193344 #
-0.048692951694992991917843028204516 1:0.014595 2:0.00093699998 3:3.6000001e-05 5:0.002474 6:0.000174 7:6.0000002e-06 17:0.001832 18:1.2e-05 21:0.011658 22:0.038233999 23:0.000535 24:6.0000002e-06 26:0.012649 27:0.013063 28:1.8000001e-05 37:0.027032999 38:0.00242 39:6.6000001e-05 41:0.00079299998 42:0.039946001 43:0.47899699 44:0.000336 47:0.00044999999 48:0.00030000001 53:0.00062499999 54:3.6000001e-05 57:0.0045349998 58:0.010432 59:0.0039039999 60:4.8000002e-05 62:6.0000002e-06 63:0.017099001 64:0.31674501 #
0.050000000000000002775557561562891 1:0.022731001 2:0.00081100001 5:0.0079150004 6:0.009509 7:0.000101 10:1.1e-05 11:3.2e-05 17:0.003275 18:0.00062900002 21:0.0055889999 22:0.41420299 23:0.0096319998 26:0.0034129999 27:0.012869 28:4.8000002e-05 31:3.7000002e-05 32:6.4e-05 37:4.8000002e-05 38:0.045189001 39:0.00036800001 42:0.045775998 43:0.092399999 44:0.00044800001 47:0.00029299999 48:0.00078399997 59:0.005781 60:6.4e-05 63:0.0032639999 64:0.314715 #
-0.050000000000000002775557561562891 1:0.093851 2:0.030021001 5:0.00051699998 6:0.030432001 7:2.7e-05 11:6.4e-05 12:4.9999999e-06 17:0.0033120001 18:0.011749 19:0.000208 21:0.001083 22:0.474949 23:0.047332998 24:4.8000002e-05 25:3.7000002e-05 26:0.00076800003 27:0.027301 38:0.0045070001 39:0.0020320001 41:4.9999999e-06 42:0.0063729999 43:0.126011 44:0.0047570001 47:0.00037299999 48:0.0054029999 58:4.9999999e-06 59:0.0035890001 60:0.000283 63:0.0067039998 64:0.118251 #
0.050000000000000002775557561562891 1:0.024676999 2:0.017061001 5:0.00030399999 6:0.001877 7:1.1e-05 8:4.9999999e-06 17:0.0053170002 18:0.0097230002 19:5.9000002e-05 21:0.00076800003 22:0.44975999 23:0.071364999 24:0.00090699998 26:0.054421 27:0.012491 28:4.3e-05 38:0.000405 39:0.003125 42:0.0052479999 43:0.185349 44:0.0053389999 47:0.0093440004 48:0.01224 59:0.000235 60:0.00081599999 63:0.0012910001 64:0.127819 #
0.050000000000000002775557561562891 1:0.097480997 2:0.0020590001 3:0.00015000001 5:0.011781 6:0.022849999 7:4.3e-05 17:0.005016 18:0.00048700001 21:0.011112 22:0.45470601 23:0.024733 25:1.6e-05 26:0.002963 27:0.013492 28:4.8000002e-05 38:0.010321 39:0.00154 42:0.010471 43:0.11569 44:0.0048560002 47:0.001214 48:0.0048130001 59:0.0060700001 60:0.00079100003 63:0.0061550001 64:0.191144 #
-0.050000000000000002775557561562891 1:0.42201701 2:0.01548 3:0.020302 4:0.025351999 5:0.0038600001 6:0.0089050001 7:0.015151 8:0.010413 10:1.1e-05 11:0.002715 12:0.011112 17:6.7000001e-05 18:8.9000001e-05 19:1.1e-05 21:6.7000001e-05 22:0.0076819998 23:0.004737 24:0.00081599999 26:0.002838 27:0.041161999 28:0.021637 31:6.0999999e-05 32:0.0020000001 39:3.4000001e-05 40:6.0000002e-06 42:0.00033000001 43:0.26860899 44:0.013972 47:0.0076979999 48:0.029457999 59:0.001469 60:7.3000003e-05 63:0.014313 64:0.047552999 #
0.050000000000000002775557561562891 1:0.67206401 2:0.030959999 3:0.00080500002 4:0.00074699998 5:1.6e-05 6:0.010683 7:0.00069299998 8:0.001237 11:1.1e-05 12:0.00054400001 16:0.000117 17:0.0055200001 18:0.0078079998 19:2.1e-05 20:5.3e-05 21:0.000421 22:0.165637 23:0.017088 24:0.00027700001 26:0.000155 27:0.013403 28:0.0039630001 32:0.00070400001 38:0.001653 39:0.00066700001 42:0.000421 43:0.031044999 44:0.0056159999 47:0.00062900002 48:0.020923 59:0.00085299998 60:4.9999999e-06 63:0.00047999999 64:0.0047789998 #
-0.036837355076627886774076614528894 1:0.051826 2:0.0026189999 3:0.00042600001 4:6.0000002e-06 5:0.001712 6:0.0057660001 7:1.2e-05 17:0.00057099998 18:7.2000003e-05 19:2.4000001e-05 20:1.8000001e-05 21:0.0043660002 22:0.066275999 23:0.000535 24:4.2e-05 26:0.00025799999 27:0.000162 37:0.24488901 38:0.166096 39:7.7999997e-05 40:1.8000001e-05 41:0.00021 42:0.046907 43:0.108595 44:0.00023999999 47:2.9999999e-05 48:0.000108 58:0.00033000001 59:0.098191999 60:5.9999998e-05 63:0.017038999 64:0.18251701 #
-0.050000000000000002775557561562891 1:0.349958 2:0.024246 3:0.001012 5:0.00044900001 6:0.0099640004 7:0.00052100001 17:0.32475999 18:0.002359 19:4.2e-05 21:0.025065999 22:0.092891999 23:0.010066 24:7.2000003e-05 26:0.001084 27:0.0064249998 28:0.000132 33:0.00036500001 34:1.2e-05 37:0.011485 38:0.012988 39:0.000413 41:0.00012 42:0.0043649999 43:0.113808 44:0.000443 47:5.4e-05 48:0.00015599999 58:0.00092800002 59:0.0016289999 60:8.3999999e-05 62:0.00014400001 63:0.00191 64:0.002048 #
0.050000000000000002775557561562891 1:0.0053440002 2:0.00047500001 5:0.00097599998 6:0.015899001 7:0.000149 10:0.002235 11:0.0025760001 17:0.00050700002 18:3.2e-05 21:0.0013229999 22:0.095536001 23:0.0068370001 24:1.1e-05 26:0.015275 27:0.060368001 28:0.00070899999 31:0.00082100002 32:0.000128 38:0.0043569999 39:0.000107 42:0.0084800003 43:0.072411001 44:0.019653 47:0.0047889999 48:0.082629003 58:4.3e-05 59:0.003765 60:0.00021300001 63:0.028139001 64:0.56621301 #
0.050000000000000002775557561562891 1:0.66410702 2:0.010144 3:0.000165 4:6.4e-05 5:0.0016589999 6:0.020548999 7:9.6000003e-05 8:0.00056000001 11:5.3e-05 12:0.00035700001 16:0.000309 17:0.010459 18:0.00012300001 21:0.0023409999 22:0.186032 23:0.050772998 24:3.2e-05 26:0.000155 27:0.026928 28:0.000203 31:4.9999999e-06 32:0.00053299998 37:0.0027310001 38:0.00042699999 39:2.1e-05 42:0.00046899999 43:0.0092000002 44:0.000165 46:4.9999999e-06 47:9.1000002e-05 48:0.00099700002 53:0.000416 57:0.00050099997 58:0.00060299999 59:0.000181 60:1.1e-05 62:5.9000002e-05 63:0.00044800001 64:0.0080270004 #
-0.031876761750387672122997173573822 1:0.0091359997 2:0.0053389999 5:6.4e-05 6:0.0073230001 7:0.000149 10:4.9999999e-06 11:3.7000002e-05 17:0.000635 18:0.001019 21:0.00030399999 22:0.25078401 23:0.178709 26:0.0015360001 27:0.170459 28:4.8000002e-05 38:0.00144 39:0.001072 42:0.001893 43:0.33219701 44:0.012229 47:0.00043700001 48:0.010928 59:0.000256 60:2.7e-05 63:0.000309 64:0.013664 #
0.050000000000000002775557561562891 1:0.120627 2:0.002012 3:0.00077599997 4:0.00075200002 5:0.00051899999 6:0.001713 7:5.4e-05 8:3.6000001e-05 17:0.121624 18:0.00026900001 20:1.8000001e-05 21:0.0027940001 22:0.038710002 23:0.00089000002 24:0.000113 26:0.000179 27:0.00085999997 28:3.6000001e-05 33:0.007522 34:1.2e-05 37:0.0051640002 38:0.0045969998 39:0.000113 42:0.001069 43:0.019212 44:0.0026750001 47:0.002967 48:0.0052180002 53:4.2e-05 54:0.0025549999 58:0.00094900001 59:0.001839 60:7.7999997e-05 63:0.001343 64:0.65266299 #
-0.050000000000000002775557561562891 1:0.63714802 2:0.028316 3:8e-06 5:0.001717 6:0.028097 7:0.0039579999 17:0.0039110002 18:0.002076 21:0.0047300002 22:0.19176801 23:0.028165 25:0.00026599999 26:0.001608 27:0.024181001 38:0.0045650001 39:0.00026599999 41:0.000101 42:0.0040130001 43:0.031548999 44:0.000101 46:2.9999999e-05 47:0.00027799999 48:4.2e-05 58:2.4999999e-05 59:0.001468 63:0.000772 64:0.00083999999 #
0.050000000000000002775557561562891 1:0.66062403 2:0.032795001 3:0.00069900003 4:0.00051699998 5:0.000619 6:0.045860998 7:0.001371 8:2.1e-05 17:0.0035089999 18:0.002421 19:0.000117 20:5.3e-05 21:0.00078399997 22:0.158475 23:0.025744 24:7.9999998e-05 26:0.00046899999 27:0.013259 33:1.1e-05 34:7.5000004e-05 38:0.001493 39:0.00054899999 40:1.1e-05 42:0.000256 43:0.036442999 44:0.001312 47:0.000203 48:0.00144 54:4.3e-05 55:1.6e-05 59:0.00047999999 60:0.00012300001 63:0.000112 64:0.010016 #
-0.018575488222495550871826708316803 1:0.106267 2:0.003083 3:0.000107 5:0.00061300001 6:0.0087409997 7:0.00062900002 10:0.000101 11:0.0012000001 15:3.2e-05 16:4.8000002e-05 17:0.0045869998 18:0.000443 19:2.1e-05 21:0.003275 22:0.418165 23:0.0079570003 26:0.0074880002 27:0.025563 28:0.000187 31:2.7e-05 32:0.001104 38:0.013856 39:0.002693 42:0.011723 43:0.36914101 44:0.000101 47:4.8000002e-05 48:0.000933 59:0.00098100002 60:4.3e-05 63:0.001403 64:0.0094400002 #
-0.049976351176951538946013897657394 1:0.728643 22:0.20779 43:0.052204002 64:0.011363 #
0.050000000000000002775557561562891 1:0.092468999 2:0.016458999 3:0.001531 4:0.00078900001 5:2.7e-05 6:0.0083790002 7:0.001301 11:4.3e-05 12:9.1000002e-05 17:0.0069169998 18:0.00096500001 19:0.00038899999 20:0.00027700001 21:0.0043040002 22:0.035700999 23:0.001637 24:0.000224 26:2.7e-05 27:0.00062900002 28:0.000117 32:0.00021899999 38:0.013861 39:0.000379 40:0.00019200001 42:0.015445 43:0.105061 44:0.0019039999 47:9.6000003e-05 48:0.00082100002 58:4.9999999e-06 59:0.029995 60:0.000117 63:0.059792001 64:0.59983498 #
0.050000000000000002775557561562891 1:0.64065099 2:0.039012998 3:0.0026130001 4:0.000187 5:0.002811 6:0.029072 7:8.5e-05 8:9.6000003e-05 12:0.000107 16:3.7000002e-05 17:0.0058129998 18:0.0025919999 19:0.000421 20:4.8000002e-05 21:0.0073009999 22:0.217627 23:0.018389 24:0.00021899999 26:0.00021899999 27:0.0064110002 28:0.000101 32:3.7000002e-05 37:0.00067699997 38:0.002715 39:0.00050099997 40:4.9999999e-06 41:4.9999999e-06 42:0.0029170001 43:0.010155 44:0.00013299999 47:4.9999999e-06 48:7.5000004e-05 54:4.9999999e-06 58:3.2e-05 59:0.000528 60:0.000117 63:0.00014400001 64:0.0081329998 #
-2.6231478168770028247536174603738e-07 1:0.242384 2:0.0064110002 3:4.9999999e-06 5:0.001573 6:0.0042349999 7:1.6e-05 9:0.000336 17:0.046016 18:0.0036530001 19:3.7000002e-05 21:0.027051 22:0.046815999 23:0.035402998 24:4.9999999e-06 25:0.0073170001 26:0.000485 27:0.0082769999 28:8.5e-05 29:0.0079570003 30:0.000149 33:0.00176 34:1.6e-05 37:0.018485 38:0.032411002 39:0.013035 40:5.3e-05 41:0.00065100001 42:0.010219 43:0.051780999 44:0.024256 45:0.002107 46:0.00072499999 47:0.003392 48:0.0065759998 53:0.001691 54:0.00064500002 57:0.00168 58:0.0061169998 59:0.010037 60:0.0086030001 61:0.001413 62:0.000459 63:0.017860999 64:0.34781301 #
0.050000000000000002775557561562891 1:0.019189 2:0.0027310001 3:2.1e-05 5:0.001648 6:0.0032800001 7:0.00025099999 8:4.9999999e-06 11:2.1e-05 12:4.9999999e-06 17:0.01168 18:0.002571 19:0.00023999999 21:0.024875 22:0.126581 23:0.010064 24:5.3e-05 25:5.3e-05 26:0.0047840001 27:0.020149 28:0.0027950001 30:4.9999999e-06 31:2.1e-05 37:0.00057600002 38:0.035946999 39:0.0043890001 40:0.0011089999 42:0.033151999 43:0.123813 44:0.0097279996 46:4.9999999e-06 47:0.0061920001 48:0.0098879999 54:5.9000002e-05 55:2.7e-05 56:4.9999999e-06 58:0.0094720004 59:0.027434999 60:0.0037070001 63:0.016271999 64:0.48719999 #
-0.0080733924261267020483501255512238 1:0.119424 2:0.0052049998 3:0.00014400001 4:7.5000004e-05 5:0.003669 6:0.003664 7:0.000336 8:0.000128 10:4.9999999e-06 11:0.00021300001 12:0.000155 16:4.3e-05 17:0.023445001 18:0.010059 19:3.2e-05 20:1.6e-05 21:0.031824 22:0.34649101 23:0.0037489999 24:6.9000002e-05 26:0.001195 27:0.001472 28:0.00029299999 31:2.1e-05 32:0.00021899999 33:0.00066700001 34:4.9999999e-06 37:0.0025599999 38:0.039338998 39:0.0061229998 40:3.2e-05 41:2.1e-05 42:0.022112001 43:0.21049599 44:0.003024 47:0.000955 48:0.00056000001 49:4.9999999e-06 53:0.001877 54:0.00060299999 55:1.1e-05 57:0.001424 58:0.00077300001 59:0.065931 60:0.011584 61:0.00014400001 62:0.000379 63:0.011957 64:0.067472003 #
0.050000000000000002775557561562891 1:0.63419902 2:0.006151 3:0.000139 5:0.01859 6:0.028608 7:0.00028899999 8:6.0000002e-06 10:0.00088599999 11:0.00066299998 12:1.8000001e-05 15:5.9999998e-05 16:1.2e-05 17:0.05359 18:0.002169 19:7.2000003e-05 20:6.0000002e-06 21:0.036300998 22:0.13484301 23:0.003145 24:5.9999998e-05 26:0.001373 27:0.0091509996 28:0.00050000002 31:0.00038000001 32:0.000283 33:2.4000001e-05 37:0.00056000001 38:0.010404 39:0.00039199999 40:2.9999999e-05 42:0.00397 43:0.019554 44:0.002753 47:0.00078900001 48:0.011627 53:1.2e-05 54:9.6000003e-05 55:6.0000002e-06 58:0.00052399997 59:0.002108 60:0.000157 62:1.2e-05 63:0.0028860001 64:0.012602 #
-0.01433766577311246237513842061162 1:0.06064 2:0.014864 3:0.001456 4:0.000379 5:0.002752 6:0.017387001 7:0.00021300001 8:2.1e-05 10:3.2e-05 17:0.0074450001 18:0.00026100001 19:0.00019200001 20:5.9000002e-05 21:0.0026670001 22:0.098011002 23:0.011573 24:0.001104 25:0.00027700001 26:0.0082400003 27:0.043627001 28:0.000128 30:4.9999999e-06 37:0.000107 38:9.6000003e-05 39:0.000235 40:2.7e-05 41:0.00069299998 42:0.0044689998 43:0.141243 44:0.0068109999 45:2.7e-05 46:0.00038899999 47:0.012757 48:0.034091 59:0.00064500002 60:0.000117 61:4.3e-05 62:0.00023999999 63:0.0060640001 64:0.52061301 #
0.050000000000000002775557561562891 1:0.020679999 2:0.0080549996 5:0.00060899998 6:0.018988 7:0.000688 11:0.00081400003 12:2.4000001e-05 17:0.000711 18:0.00080600003 21:0.00063199998 22:0.18668801 23:0.050110999 24:3.2e-05 26:0.001794 27:0.042458002 28:0.00094900001 32:0.00055300002 38:0.00049000001 39:0.000379 42:0.000688 43:0.118055 44:0.012245 47:0.00060099998 48:0.021012001 59:0.00079100003 60:0.00021300001 63:0.001818 64:0.50911498 #
-0.050000000000000002775557561562891 1:0.31997299 2:0.02688 3:0.00013299999 5:0.002533 6:0.018340999 7:0.0058189998 17:0.041951999 18:0.0047360002 19:2.1e-05 20:4.9999999e-06 21:0.136107 22:0.32552499 23:0.013253 24:1.6e-05 26:0.00097599998 27:0.0087630004 28:0.00090099999 34:1.6e-05 38:0.00067699997 39:0.001419 40:1.1e-05 42:0.00042699999 43:0.035519999 44:0.014112 47:0.00029299999 48:0.0096319998 54:1.6e-05 59:0.00065100001 60:0.000741 63:0.00031999999 64:0.030229 #
0.050000000000000002775557561562891 1:0.63492501 2:0.013784 3:0.0054649999 4:0.00191 5:0.003664 6:0.0096039996 7:0.00167 8:5.9999998e-05 11:0.000168 12:0.00012 17:0.013105 18:0.00066100003 19:0.00015000001 20:4.8000002e-05 21:0.024102001 22:0.130438 23:0.002685 24:0.000114 26:0.000108 27:0.00042 28:0.00039 32:4.2e-05 38:0.009784 39:0.004342 42:0.0043299999 43:0.053213 44:7.7999997e-05 47:0.000108 48:9.0000001e-05 59:0.022589 60:9.0000001e-05 63:0.017783999 64:0.043958001 #
-0.050000000000000002775557561562891 1:0.089596003 2:0.031877 3:7.0000001e-06 5:0.00011 6:0.014445 7:0.000185 17:0.00026 18:0.0027330001 19:0.00021899999 21:4.0999999e-05 22:0.133247 23:0.144603 24:0.000212 26:9.6000003e-05 27:0.036068 28:0.002171 38:0.000103 39:0.00041800001 42:0.000199 43:0.100705 44:0.024363 47:0.000226 48:0.020726001 59:0.00017100001 60:7.5000004e-05 63:0.005322 64:0.39182201 #
-0.050000000000000002775557561562891 1:0.66458303 2:0.0075679999 3:3.6000001e-05 5:0.019231001 6:0.031225 7:0.001411 8:4.8000002e-05 10:2.9999999e-05 11:0.000138 12:0.00019799999 16:6.0000002e-06 17:0.0049669999 18:7.7999997e-05 21:0.0087329997 22:0.221093 23:0.004402 24:2.9999999e-05 25:5.9999998e-05 26:0.0044140001 27:0.001742 28:0.001778 32:0.00032399999 33:0.000174 37:5.9999998e-05 38:0.0057239998 39:2.4000001e-05 41:0.000126 42:0.010619 43:0.00060700002 44:0.00045600001 45:0.00023999999 46:2.9999999e-05 47:0.000168 48:0.0022460001 54:1.8000001e-05 58:2.4000001e-05 59:0.000162 61:0.000126 62:0.000294 63:0.003916 64:0.0028890001 #
0.050000000000000002775557561562891 1:0.06961 2:0.028233999 3:0.002024 4:0.00176 5:0.00152 6:0.028192 7:0.002144 8:2.9999999e-05 10:2.9999999e-05 11:0.001357 12:0.0053750002 16:0.00037200001 17:0.011171 18:0.00033000001 19:0.00036599999 20:0.001117 21:0.002138 22:0.089063004 23:0.043099001 24:0.0021860001 26:0.0072610001 27:0.111616 28:0.00049800001 32:0.00047999999 33:2.4000001e-05 37:0.00028199999 38:0.0013989999 39:0.000138 40:0.000132 42:0.000444 43:0.48930901 44:0.054535002 47:0.00057099998 48:0.021309 58:6.6000001e-05 59:0.00057700003 60:0.00015000001 63:0.00066700001 64:0.02042 #
-0.039177467591830605897484929300845 1:0.092630997 2:0.010679 5:0.000535 6:0.037416998 7:0.001381 17:0.016162001 18:5.4e-05 21:0.033946 22:0.090721004 23:0.035610002 26:0.00030000001 27:0.097778 28:2.4000001e-05 38:0.0028589999 39:0.00039599999 42:0.015237 43:0.54236603 44:0.011429 47:6.0000002e-06 48:0.003724 59:0.0033090001 60:6.0000002e-06 63:0.002138 64:0.0012910001 #
0.050000000000000002775557561562891 1:0.625072 2:0.013899 3:9.6000003e-05 5:0.071125001 6:0.065978996 7:0.000197 8:0.000149 10:0.00013299999 11:2.1e-05 12:0.000101 16:6.9000002e-05 17:0.008165 18:5.3e-05 19:1.6e-05 21:0.0046720002 22:0.102848 23:0.0044209999 24:0.000112 26:0.003093 27:0.0070449999 28:0.000272 31:1.1e-05 32:0.000229 33:3.2e-05 37:2.1e-05 38:0.00057099998 39:3.7000002e-05 40:1.1e-05 42:0.00061300001 43:0.030331001 44:0.001328 47:0.000245 48:0.001024 54:4.9999999e-06 58:2.7e-05 59:0.00080500002 60:9.6000003e-05 63:0.00079999998 64:0.056272 #
0.050000000000000002775557561562891 1:0.026365999 2:0.001061 3:4.2e-05 5:0.002727 6:0.017325999 7:2.7e-05 11:1.6e-05 17:0.001316 18:0.001634 19:9.0000001e-05 21:0.0039049999 22:0.32447201 23:0.028615 24:4.9999999e-06 26:0.00121 27:0.157427 28:0.001332 38:0.000589 39:0.00049900002 40:4.2e-05 42:0.001162 43:0.38121501 44:0.013008 47:0.000228 48:0.002355 59:0.00036100001 60:0.000271 63:0.00029699999 64:0.032403 #
-0.050000000000000002775557561562891 1:0.60371798 2:0.0012309999 3:0.00021 4:0.000114 5:0.072269998 6:0.03991 7:0.003393 8:0.00014400001 10:0.001171 11:0.0048770001 12:0.000126 16:1.2e-05 17:0.011009 18:0.00014400001 19:6.0000002e-06 21:0.045628 22:0.052990999 23:0.0079880003 24:0.00042600001 25:1.8000001e-05 26:0.0024260001 27:0.026497999 28:0.002571 31:4.8000002e-05 32:0.0013989999 33:4.2e-05 37:0.000108 38:0.0050030001 39:9.6000003e-05 40:1.2e-05 41:6.6000001e-05 42:0.0053269998 43:0.020966999 44:0.005171 47:0.001153 48:0.0046970001 49:4.8000002e-05 53:0.000126 54:0.000108 57:2.9999999e-05 58:0.00012 59:0.001634 60:0.00014400001 62:3.6000001e-05 63:0.001886 64:0.074895002 #
-0.050000000000000002775557561562891 1:0.16404299 22:0.41336 43:0.333814 64:0.088783003 #
-0.0043235547966542497988484683446586 1:0.013652 2:0.000228 3:1.2e-05 5:0.000126 6:0.000114 17:0.0097780004 18:9.6000003e-05 19:1.8000001e-05 21:0.072780997 22:0.32367 23:0.0029730001 26:0.000102 27:0.0014290001 37:6.0000002e-06 38:0.034426 39:0.00021 42:0.017898001 43:0.51305097 44:0.00027600001 47:2.4000001e-05 48:0.00034200001 59:0.00069100002 60:8.3999999e-05 63:0.000186 64:0.0078260005 #
0.050000000000000002775557561562891 1:0.56893998 2:0.006143 3:0.00019599999 5:0.0028270001 6:0.0028510001 7:2.4000001e-05 11:1.8000001e-05 17:0.114708 18:0.001179 21:0.098160997 22:0.082291998 23:0.000137 26:2.4000001e-05 27:3.6000001e-05 33:0.031803999 34:1.2e-05 37:0.005262 38:0.041726001 39:0.000185 42:0.026327001 43:0.0077379998 54:0.000244 55:1.2e-05 58:0.00038700001 59:0.0023930001 60:1.2e-05 63:0.00050000002 64:0.0058630002 #
0.050000000000000002775557561562891 1:0.616835 2:0.032216001 3:0.000174 5:0.000132 6:0.034781002 7:0.001195 8:1.8000001e-05 11:1.8000001e-05 12:6.0000002e-06 17:0.00023400001 18:0.00035399999 21:0.000168 22:0.070565 23:0.025129 24:0.00012 26:0.000126 27:0.021051001 28:0.0093329996 32:6.0000002e-06 33:2.4000001e-05 34:1.2e-05 37:3.6000001e-05 38:0.000444 39:0.00039 42:0.00023999999 43:0.040709 44:0.042571001 47:0.000114 48:0.054281998 53:6.0000002e-06 54:7.7999997e-05 55:1.2e-05 58:1.2e-05 59:0.00063700002 60:0.00018 63:0.000186 64:0.047603998 #
-1.2125915027638711762847378849983e-07 1:0.20802701 2:0.011872 3:0.022406001 4:0.014749 5:0.0084490003 6:0.045807 7:0.0079680001 8:0.00015000001 10:0.044197999 11:0.063534997 17:0.00019799999 18:0.00036400001 19:0.00015000001 20:0.000193 21:0.0010160001 22:0.028316 23:0.016503001 24:0.001545 25:2.7e-05 26:0.0085239997 27:0.32963601 28:0.001118 31:0.000225 32:1.1e-05 38:0.000332 39:0.00077500002 40:0.000374 42:0.00084499997 43:0.031872001 44:0.013299 47:0.00108 48:0.0092829997 59:0.000428 60:0.000374 63:0.00054500002 64:0.125807 #
-0.050000000000000002775557561562891 1:0.086629003 2:0.0030400001 3:0.000528 4:7.5000004e-05 5:0.011611 6:0.034309 7:0.001451 8:2.7e-05 11:3.7000002e-05 17:0.0031890001 18:0.001051 19:1.1e-05 21:0.0029170001 22:0.28103501 23:0.038011 24:0.00028800001 26:0.0060689999 27:0.090154998 28:0.00081599999 32:9.1000002e-05 33:0.000112 34:1.6e-05 37:2.1e-05 38:0.001877 39:0.0027040001 42:0.001189 43:0.365253 44:0.028612999 47:0.0024910001 48:0.020693 49:4.9999999e-06 54:7.9999998e-05 55:1.6e-05 59:0.00041099999 60:0.000245 63:0.001285 64:0.013648 #
-0.050000000000000002775557561562891 1:0.155909 2:0.007547 3:3.2e-05 5:0.0037440001 6:0.0053329999 7:0.00021899999 8:0.00017100001 12:0.000101 17:0.012283 18:0.00067199999 19:4.9999999e-06 21:0.055472001 22:0.20127501 23:0.003029 26:0.001573 27:0.0032589999 37:4.3e-05 38:0.023355 39:0.000379 42:0.114917 43:0.127381 44:0.013115 47:0.00070899999 48:0.026635 58:0.00028800001 59:0.001664 60:0.000245 63:0.000336 64:0.240309 #
0.050000000000000002775557561562891 1:0.53198802 2:0.0055840001 3:0.00083700003 4:0.001994 5:0.000235 6:0.00054199999 7:0.00077099999 8:0.00017499999 12:6.6000001e-05 17:0.020747 18:0.00039199999 19:3.6000001e-05 20:5.4e-05 21:0.058488 22:0.005223 23:0.000355 24:0.00058400002 25:6.0000002e-06 26:0.00012 27:0.00012 28:0.000386 32:4.2e-05 33:3.6000001e-05 37:0.065898001 38:0.004102 39:1.8000001e-05 40:2.4000001e-05 41:0.014295 42:0.0095779998 43:0.00033099999 44:0.000181 46:6.0000002e-06 47:4.8000002e-05 48:0.00027700001 53:0.000795 57:0.008343 58:0.024819 59:9.0000001e-05 60:1.2e-05 61:0.00047599999 62:0.045416001 63:0.179988 64:0.016518001 #
0.050000000000000002775557561562891 1:0.56373 2:0.058123998 3:0.0043939999 4:0.0013070001 5:0.0088459998 6:0.022751 7:0.0050079999 8:0.00035300001 10:7.5000004e-05 11:0.000237 12:0.000158 16:6.1999999e-05 17:0.00012 18:0.00054799998 19:0.000158 20:8.7e-05 21:0.000216 22:0.0071740001 23:0.014021 24:0.00075100001 25:3.7000002e-05 26:0.000718 27:0.022436 28:0.0092860004 30:4e-06 31:0.000124 32:0.000734 34:4e-06 37:8e-06 38:0.00045600001 39:0.00063899998 40:1.2e-05 41:5.4e-05 42:0.000178 43:0.0033199999 44:0.018021001 45:4.0999999e-05 46:0.000241 47:0.00046499999 48:0.085667998 55:4e-06 58:4e-06 59:1.7e-05 60:2.9000001e-05 61:7.8999998e-05 62:0.00029500001 63:0.000224 64:0.16878 #
0.050000000000000002775557561562891 1:0.60988599 2:0.00034200001 5:0.001718 6:0.0076100002 9:6.0000002e-06 17:0.005808 18:7.2000003e-05 21:0.0052609998 22:0.045573998 23:0.00024600001 26:0.000216 27:0.002511 37:0.00031800001 38:0.028306 39:6.0000002e-06 42:0.012 43:0.066413999 44:0.001676 47:0.000432 48:0.015417 59:0.001357 60:2.4000001e-05 63:0.001514 64:0.193285 #
-0.050000000000000002775557561562891 1:0.19670901 2:0.00082100002 3:4.3e-05 4:4.9999999e-06 5:0.000283 6:0.000379 7:9.6000003e-05 17:0.243616 18:0.000256 19:4.9999999e-06 21:0.25411201 22:0.029440001 23:0.001845 24:8.5e-05 26:0.000149 27:0.00038400001 28:0.00072000001 37:0.034143999 38:0.089013003 39:0.00034100001 42:0.049931001 43:0.024443001 44:0.001707 47:0.00014400001 48:0.00062399998 54:1.1e-05 58:0.0030509999 59:0.011781 60:0.00046400001 63:0.0024590001 64:0.052939001 #
0.050000000000000002775557561562891 1:0.056554999 2:0.002725 3:0.000112 5:0.0021550001 6:0.0074129999 7:0.000176 11:1.6e-05 17:0.003941 18:0.000224 19:4.8000002e-05 20:1.1e-05 21:0.0098080002 22:0.235061 23:0.0044530001 24:0.0029279999 26:0.0023409999 27:0.031792 28:0.0043569999 38:0.16227201 39:8.5e-05 40:2.1e-05 42:0.052997001 43:0.398987 44:0.001264 47:0.001611 48:0.0024639999 59:0.00047500001 63:0.0010930001 64:0.014613 #
-0.019462406924398045759971864754334 1:0.032568 2:0.0039530001 3:0.001657 5:0.0051119998 6:0.015142 7:0.0019700001 8:1.8000001e-05 10:0.000195 11:0.00069800002 12:0.000225 16:0.000112 17:0.001692 18:0.00072800001 19:0.00029600001 20:6.0000002e-06 21:0.0047340002 22:0.42776299 23:0.016663 24:0.003367 25:6.5e-05 26:0.022041 27:0.039521001 28:0.00242 31:2.4000001e-05 32:0.002817 37:0.000917 38:0.006515 39:0.0034970001 40:0.001219 41:0.00051500002 42:0.0087339999 43:0.317911 44:0.001379 46:6.5e-05 47:0.0028820001 48:0.001645 53:6.0000002e-06 57:0.00046700001 58:0.001456 59:0.021527 60:0.000485 62:0.00093500002 63:0.003278 64:0.042780999 #
0.050000000000000002775557561562891 1:0.088308997 2:0.016773 5:0.00055499998 6:0.011664 7:4.9999999e-06 17:0.004683 18:0.00066100003 21:0.0050769998 22:0.28427699 23:0.000405 26:5.3e-05 27:0.00072499999 28:0.000485 32:7.5000004e-05 37:5.3e-05 38:0.0039679999 39:0.00016 41:5.3e-05 42:0.0057919999 43:0.41050699 44:0.00058699999 47:0.000139 48:0.00077300001 58:1.1e-05 59:0.086000003 60:2.1e-05 63:0.026644999 64:0.051541001 #
0.050000000000000002775557561562891 1:0.077243 2:0.032377999 3:0.0072369999 4:0.00040799999 5:0.001538 6:0.017038999 7:0.001423 8:0.001832 11:0.00015000001 17:0.011135 18:0.001471 19:0.00033000001 20:1.2e-05 21:0.012667 22:0.410781 23:0.016480001 24:0.002078 26:0.001195 27:0.013934 28:0.00046800001 37:0.0028890001 38:0.027243 39:0.0022400001 40:2.4000001e-05 41:0.000204 42:0.016354 43:0.292799 44:0.0059639998 47:0.00042600001 48:0.0048529999 58:0.000186 59:0.004865 60:0.000222 63:0.003333 64:0.028595001 #
-0.037279847889578832109691575169563 1:0.72859699 2:0.003419 3:1.1e-05 5:0.00061300001 6:0.0073810001 7:0.0042130002 10:4.3e-05 11:0.00072499999 12:2.1e-05 17:0.010309 18:0.000128 21:0.004187 22:0.012581 23:0.002165 24:1.6e-05 26:0.000155 27:0.017216001 28:0.000432 31:1.6e-05 32:0.000107 33:0.00060299999 37:0.000336 38:0.0038030001 39:4.8000002e-05 42:0.002693 43:0.0039039999 44:0.000229 46:1.6e-05 47:4.8000002e-05 48:0.00052300002 54:9.1000002e-05 58:0.00023999999 59:0.002176 60:6.9000002e-05 62:5.9000002e-05 63:0.00152 64:0.19130699 #
0.050000000000000002775557561562891 1:0.075848997 2:0.016464001 6:0.013494 7:0.00027700001 8:1.8000001e-05 12:5.9999998e-05 17:0.0037710001 18:0.002048 21:0.001855 22:0.126994 23:0.041866999 24:1.2e-05 26:1.2e-05 27:0.072705001 28:0.001783 38:0.002422 39:0.00038000001 42:0.000512 43:0.468741 44:0.112325 47:2.4000001e-05 48:0.026229 59:0.001861 60:5.4e-05 63:0.000355 64:0.029886 #
-0.050000000000000002775557561562891 1:0.330239 2:0.079999998 3:0.0086209998 5:0.011391 6:0.049242001 7:0.000734 11:6.0000002e-06 17:0.00154 18:0.00057899999 19:0.00016700001 20:6.0000002e-06 21:0.002257 22:0.022394 23:0.0046509998 24:0.00013099999 26:0.001355 27:0.0026090001 28:3.6000001e-05 33:2.4000001e-05 37:8.3999999e-05 38:0.0016899999 39:0.00034599999 40:0.000107 42:0.0030149999 43:0.010842 44:0.00073999999 47:0.000101 48:0.000149 58:7.2000003e-05 59:0.038716 60:4.8000002e-05 63:0.124472 64:0.30363601 #
0.050000000000000002775557561562891 1:0.032533001 2:0.001648 3:7.5000004e-05 5:0.00062900002 6:0.0053969999 7:8.5e-05 17:0.0038350001 18:0.00081599999 19:1.6e-05 21:0.0047149998 22:0.239493 23:0.0044160001 26:0.00095999998 27:0.0053119999 37:4.9999999e-06 38:0.021995001 39:0.00047500001 42:0.024266999 43:0.394555 44:0.0055889999 47:0.00039500001 48:0.001088 59:0.0027950001 60:0.0070239999 63:0.00031999999 64:0.24156301 #
-0.021651758732382120342663256451488 1:0.104821 2:0.0029170001 3:0.00061300001 4:2.1e-05 5:0.002629 6:0.001408 7:0.001419 8:9.6000003e-05 11:0.00023999999 12:0.000955 16:0.001413 17:0.100235 18:0.00013299999 21:0.053748999 22:0.020043001 23:0.011696 26:6.9000002e-05 27:0.011264 28:0.0058769998 32:0.000256 33:0.0041550002 34:4.9999999e-06 37:0.024107 38:0.0083309999 39:0.00296 41:0.00013299999 42:0.0019729999 43:0.021429 44:0.10232 47:2.1e-05 48:0.21684299 49:0.0030670001 53:0.082891002 54:0.000203 55:4.9999999e-06 57:0.029035 58:0.028596999 59:0.041365001 60:0.001296 61:4.9999999e-06 62:2.1e-05 63:0.050852999 64:0.060527999 #
0.050000000000000002775557561562891 1:0.61354399 2:0.011832 3:0.0059039998 4:0.000336 5:0.017622 6:0.030204 7:0.00026999999 10:0.0025889999 11:0.0021800001 12:3.6000001e-05 15:0.000228 16:4.2e-05 17:0.011946 18:0.000216 19:6.0000002e-06 21:0.042505 22:0.085904002 23:0.004985 24:2.4000001e-05 25:0.000925 26:0.0043839999 27:0.015976001 28:0.00041400001 31:0.0012910001 32:0.00081100001 37:0.000348 38:0.011874 39:0.000444 41:4.8000002e-05 42:0.014186 43:0.053502001 44:0.003976 45:1.2e-05 46:6.0000002e-06 47:0.00063700002 48:0.005682 55:6.0000002e-06 57:1.2e-05 58:0.00025799999 59:0.012679 60:0.00025799999 62:1.2e-05 63:0.0086549995 64:0.033231001 #
-0.050000000000000002775557561562891 1:0.054049999 2:0.0042500002 3:0.00085000001 4:9.0000001e-05 5:0.00017 6:0.00063000002 7:0.00060999999 8:3.9999999e-05 11:2.9999999e-05 17:0.0029800001 18:0.00016 19:0.00023999999 21:0.0050599999 22:0.12272 23:0.00127 24:0.00012 26:5.9999998e-05 27:0.00044999999 28:0.00022 32:4.9999999e-05 33:9.9999997e-06 37:2.9999999e-05 38:0.12984 39:0.00019000001 40:5.9999998e-05 42:0.1663 43:0.19162001 44:0.00095000002 47:2.9999999e-05 48:0.00034 59:0.058249999 60:0.00118 63:0.01385 64:0.24330001 #
0.050000000000000002775557561562891 1:0.0097049996 2:0.00966 5:4.9999999e-05 6:0.00054500002 17:0.00089999998 18:0.0029549999 21:7.9999998e-05 22:0.25555 23:0.016375 24:0.0022450001 26:0.001635 27:0.0030350001 28:0.00011 38:0.0093200002 39:0.0040549999 40:0.00236 42:0.002055 43:0.100255 44:0.055009998 47:0.01519 48:0.01546 58:4.9999999e-06 59:0.01145 60:0.0061550001 63:0.01386 64:0.46197999 #
-0.050000000000000002775557561562891 1:0.499589 2:0.038116999 3:0.00041099999 4:2.7e-05 5:0.0029120001 6:0.014571 7:0.001488 8:3.7000002e-05 11:4.9999999e-06 12:4.9999999e-06 16:1.1e-05 17:0.0036269999 18:0.0036210001 19:0.00019200001 20:4.9999999e-06 21:0.016720001 22:0.13126899 23:0.057099 24:6.4e-05 25:0.00013299999 26:0.000181 27:0.024139 28:0.014603 32:2.1e-05 37:0.001936 38:0.015109 39:0.002267 41:0.001557 42:0.001835 43:0.105061 44:0.039872002 46:2.7e-05 47:0.000176 48:0.018544 58:1.1e-05 59:0.00031500001 60:0.000165 62:4.8000002e-05 63:0.00066700001 64:0.0035629999 #
-0.050000000000000002775557561562891 1:0.118688 2:0.001253 5:0.039434999 6:0.034421001 7:1.1e-05 10:1.1e-05 17:0.00060299999 18:8.5e-05 21:0.0089969998 22:0.199605 23:0.001531 26:0.031008 27:0.029867001 38:0.00041099999 39:8.5e-05 42:0.0052 43:0.092491001 44:7.9999998e-05 47:0.001547 48:0.0087470002 59:3.2e-05 60:1.1e-05 63:0.000405 64:0.425477 #
0.050000000000000002775557561562891 1:0.59715199 2:0.00087500003 5:0.032986999 6:0.025845001 7:4.8000002e-05 9:8.5e-05 10:0.042325001 11:0.00067199999 14:4.3e-05 15:0.00013299999 17:0.0065919999 18:0.000267 21:0.026528001 22:0.042939 23:0.00086899998 25:5.3e-05 26:0.028229 27:0.015045 28:5.3e-05 30:1.6e-05 31:0.000224 32:0.000229 37:4.9999999e-06 38:0.000635 39:8.5e-05 41:4.9999999e-06 42:0.0053010001 43:0.128208 44:0.000325 46:2.1e-05 47:0.002197 48:0.001867 58:6.4e-05 59:0.00054400001 60:6.4e-05 62:4.3e-05 63:0.001861 64:0.037563 #
0.050000000000000002775557561562891 1:0.029007999 2:0.0066880002 3:0.00017100001 4:4.9999999e-06 5:0.001163 6:0.013237 7:0.001227 8:0.000139 9:2.1e-05 10:0.000203 17:0.000864 18:0.00047500001 21:0.0020049999 22:0.309531 23:0.015365 24:2.7e-05 26:0.0022720001 27:0.013947 28:1.6e-05 38:0.00085299998 39:0.00076299999 42:0.00076800003 43:0.172336 44:0.0043680002 47:0.00075200002 48:0.0037710001 59:0.0033489999 60:0.00093899999 63:0.001024 64:0.41471499 #
-0.050000000000000002775557561562891 1:0.55775499 2:0.021072 3:5.9000002e-05 5:0.000336 6:0.020463999 7:0.0034990001 11:0.00312 12:0.001365 16:6.9000002e-05 17:0.018416001 18:0.010869 19:3.2e-05 21:0.010309 22:0.088853002 23:0.039376002 24:0.00035700001 26:0.000432 27:0.026032001 28:0.011376 32:0.002565 37:6.9000002e-05 38:0.001195 39:0.00057600002 40:3.2e-05 42:0.00067699997 43:0.070784003 44:0.053994998 47:2.1e-05 48:0.029947 58:0.000117 59:0.0030400001 60:0.00039500001 63:0.000336 64:0.022459 #
0.050000000000000002775557561562891 1:0.47518101 2:0.233587 3:0.020865001 4:0.012052 5:0.00038099999 6:0.089813001 7:0.061760999 8:0.005103 9:6.0000002e-06 10:1.8999999e-05 11:0.008219 12:0.001065 16:5.1999999e-05 17:0.00229 18:0.00098699995 19:0.000161 20:1.3e-05 21:0.000155 22:0.011161 23:0.012348 24:0.0027290001 25:0.000116 26:0.00038700001 27:0.012232 28:0.010871 29:6.0000002e-06 30:4.5000001e-05 31:2.6e-05 32:0.0019349999 33:0.000581 34:0.00012300001 35:3.8999999e-05 36:6.0000002e-06 37:1.8999999e-05 38:0.00068400003 39:0.00074799999 40:0.00013499999 42:7.6999997e-05 43:0.0035290001 44:0.0033229999 45:6.0000002e-06 46:7.1000002e-05 47:0.000168 48:0.010703 49:0.00013499999 50:6.0000002e-06 53:1.8999999e-05 54:0.000103 55:9.0000001e-05 56:1.3e-05 58:2.6e-05 59:0.00041899999 60:0.00056800002 63:7.6999997e-05 64:0.014761 #
-0.050000000000000002775557561562891 1:0.34394401 2:0.0060959999 5:1.8000001e-05 6:0.001287 17:0.155985 18:0.017117999 21:0.0042770002 22:0.34326899 23:0.016142 26:0.00036400001 27:0.01332 38:0.0071609998 39:0.00016900001 42:0.0041800002 43:0.052701999 44:0.005049 47:0.000115 48:0.003452 59:0.0013839999 60:1.8000001e-05 63:0.001393 64:0.022557 #
0.050000000000000002775557561562891 1:0.0032589999 2:9.6000003e-05 5:0.0036510001 6:0.0099520003 21:2.4000001e-05 22:0.31010199 23:0.010036 24:0.000108 26:0.017084001 27:0.151307 28:4.8000002e-05 31:1.2e-05 38:0.00028899999 39:0.000229 40:1.2e-05 42:0.00112 43:0.19256601 44:0.001127 47:0.0020059999 48:0.0020300001 59:0.000271 60:0.00016900001 63:0.00047599999 64:0.29402399 #
-0.050000000000000002775557561562891 1:0.46412599 2:0.27654499 3:1.2e-05 5:0.00036500001 6:0.073108003 7:0.00095199997 17:0.000162 18:0.00047299999 19:6.0000002e-06 21:0.000162 22:0.051635001 23:0.013072 24:4.2e-05 26:0.00028099999 27:0.0083410004 28:0.0019700001 38:0.00015599999 39:0.000162 42:0.000132 43:0.044335 44:0.014389 47:0.00023999999 48:0.011647 59:0.000826 60:0.00040700001 63:0.000186 64:0.036269002 #
0.050000000000000002775557561562891 1:0.619995 2:0.010267 3:1.1e-05 4:1.6e-05 5:0.0039789998 6:0.019525001 7:2.1e-05 8:4.9999999e-06 15:4.9999999e-06 16:4.9999999e-06 17:0.012336 18:0.000443 21:0.016688 22:0.12646399 23:0.0042289998 26:0.00064500002 27:0.0047729998 28:2.1e-05 32:2.1e-05 37:0.000235 38:0.031739 39:0.00079999998 41:3.2e-05 42:0.03136 43:0.040971 44:0.0025760001 47:0.000181 48:0.002816 53:1.1e-05 58:0.00028800001 59:0.015744001 60:0.000165 62:1.1e-05 63:0.01584 64:0.037781 #
-0.050000000000000002775557561562891 1:0.387739 2:0.012803 3:3.7000002e-05 5:6.9000002e-05 6:0.0087069999 7:0.011766 17:0.0036009999 18:0.00049499999 21:0.010793 22:0.013543 23:0.048298001 24:0.001266 27:0.000181 28:0.00038300001 37:0.0087930001 38:0.009234 39:2.1e-05 41:0.0083029997 42:0.0072869998 43:0.000218 44:1.6e-05 53:0.000596 57:0.02942 58:0.138532 59:0.199218 63:0.098580003 64:0.000101 #
-0.050000000000000002775557561562891 1:0.496811 2:0.014965 5:0.020191999 6:0.044635002 7:4.3e-05 10:0.00021300001 11:1.1e-05 17:0.030555001 18:0.00023999999 21:0.093231998 22:0.144539 23:0.001269 26:0.0035679999 27:0.0082830004 33:4.9999999e-06 37:3.2e-05 38:0.00083199999 39:2.7e-05 42:0.0027360001 43:0.047435001 44:4.8000002e-05 47:0.001264 48:0.00068300002 59:0.00025099999 63:0.0037710001 64:0.084362999 #
0.050000000000000002775557561562891 1:0.091953002 2:0.048059002 3:0.000195 4:0.000142 5:0.005012 6:0.039308 7:0.00034299999 8:5.9000002e-05 10:0.000237 11:0.000355 12:2.9999999e-05 17:0.00232 18:0.00066899997 19:8.2999999e-05 20:5.3e-05 21:0.0026090001 22:0.060555998 23:0.015249 24:0.000379 25:0.001349 26:0.000485 27:0.0075559998 28:0.001757 31:1.2e-05 32:1.8000001e-05 37:0.000379 38:0.006763 39:0.00082800002 40:5.3e-05 41:0.00041400001 42:0.013213 43:0.067644998 44:0.023373 46:2.9999999e-05 47:0.00036100001 48:0.0060530002 58:0.00055599998 59:0.0098639997 60:0.001237 62:1.2e-05 63:0.032166 64:0.55826598 #
-0.050000000000000002775557561562891 1:0.138896 2:0.00152 5:0.073973 6:0.033381 7:0.00012300001 9:4.9999999e-06 10:0.001579 11:0.000272 15:1.1e-05 17:0.062068999 18:0.0012159999 21:0.039455999 22:0.15703499 23:0.002571 25:6.4e-05 26:0.044075001 27:0.019792 28:0.00027700001 30:1.6e-05 31:0.0012159999 32:0.000176 33:2.1e-05 37:0.000741 38:0.051573001 39:0.0047200001 41:1.1e-05 42:0.022336001 43:0.105552 44:0.0096049998 46:9.1000002e-05 47:0.007435 48:0.007733 54:0.000635 58:0.0044109998 59:0.025760001 60:0.0046609999 62:2.1e-05 63:0.0070719998 64:0.169899 #
0.050000000000000002775557561562891 1:0.58866102 2:0.0076319999 3:0.000197 5:0.0091629997 6:0.012752 7:0.001824 8:0.000325 10:0.001141 11:0.001061 12:0.000267 17:0.061291002 18:0.002507 21:0.063157 22:0.138891 23:0.003461 24:0.000224 26:0.0013070001 27:0.009269 28:0.00053899997 31:0.00128 32:0.00089099997 37:6.4e-05 38:0.010955 39:3.7000002e-05 42:0.024212999 43:0.019626999 44:0.00095999998 47:0.00080500002 48:0.003584 54:4.9999999e-06 58:0.000421 59:0.0152 60:3.7000002e-05 63:0.0029869999 64:0.015264 #
0.050000000000000002775557561562891 1:0.037214998 2:0.0042110002 5:0.00058599998 6:0.00452 7:1.2e-05 17:0.0046950001 18:0.0023690001 19:1.2e-05 21:0.0041089999 22:0.115063 23:0.0078309998 24:6.0000002e-06 26:0.001946 27:0.0043810001 28:1.8000001e-05 38:0.0055229999 39:0.001734 40:1.2e-05 42:0.0076799998 43:0.15397 44:0.050066002 47:0.00023600001 48:0.024761001 59:0.035498001 60:0.0027920001 63:0.043843001 64:0.48691201 #
-0.050000000000000002775557561562891 1:0.55899698 2:0.029027 3:0.0062040002 4:0.001069 5:0.00191 6:0.006511 7:0.0050149998 8:0.011471 12:0.001021 17:0.054083999 18:0.0095020002 19:0.00032399999 21:0.046918999 22:0.16218001 23:0.011021 24:0.011892 26:0.000336 27:0.001171 28:0.015147 32:0.00027600001 37:0.001099 38:0.012637 39:0.00096099998 40:7.2000003e-05 41:0.00068499998 42:0.010595 43:0.019808 44:0.0025770001 46:6.0000002e-06 47:9.0000001e-05 48:0.00073899998 53:6.0000002e-06 57:0.00091300003 58:0.001471 59:0.001453 60:0.00030000001 61:1.2e-05 62:0.0023419999 63:0.0060180002 64:0.0041379998 #
0.050000000000000002775557561562891 1:0.52360499 2:0.109136 3:0.00045299999 5:5.9000002e-05 6:0.060293 7:0.02696 11:0.0014609999 12:2.1e-05 17:0.0073970002 18:0.002992 19:4.3e-05 21:0.006848 22:0.026981 23:0.016677 24:1.1e-05 26:1.6e-05 27:0.0086559998 28:0.0094879996 31:4.9999999e-06 32:0.021850999 33:0.000112 34:6.4e-05 37:0.00089600001 38:0.011781 39:0.0010930001 42:0.0011089999 43:0.0071999999 44:0.000325 47:3.7000002e-05 48:0.116597 49:1.1e-05 54:0.00073600002 55:4.8000002e-05 58:0.0028959999 59:0.009819 60:0.00042699999 63:0.0031630001 64:0.020731 #
-0.050000000000000002775557561562891 1:0.093659997 2:0.002906 5:0.004437 6:0.017959001 7:0.00050600001 11:4.0999999e-05 12:4.9999999e-06 17:0.0090340003 18:0.00063000002 21:0.0055539999 22:0.122166 23:0.0044459999 26:0.00126 27:0.01143 28:0.00011 32:1.8000001e-05 38:0.001205 39:5.0999999e-05 42:0.001131 43:0.093277998 44:0.001683 47:0.00068 48:0.0027079999 59:0.065641001 60:0.00090099999 63:0.086713001 64:0.47184801 #
0.050000000000000002775557561562891 1:0.061508998 2:0.0097970003 3:7.9999998e-05 4:1.6e-05 5:0.0058769998 6:0.056047998 7:0.00038899999 8:2.1e-05 10:0.001877 11:0.00021899999 12:0.000101 16:8.5e-05 17:0.0063470001 18:0.001371 19:1.6e-05 20:3.7000002e-05 21:0.0046609999 22:0.169872 23:0.047210999 24:2.7e-05 25:2.1e-05 26:0.0030509999 27:0.038853001 28:0.00012300001 32:0.000117 33:0.00045299999 37:9.6000003e-05 38:0.0032530001 39:0.001728 40:4.9999999e-06 41:1.1e-05 42:0.002757 43:0.054432001 44:0.00097599998 47:0.00064500002 48:0.00083199999 53:4.9999999e-06 58:4.9999999e-06 59:0.004923 60:0.000117 62:4.9999999e-06 63:0.005899 64:0.516128 #
-0.050000000000000002775557561562891 1:0.43354401 2:0.031693999 3:0.110336 4:0.047736 5:9.6000003e-05 6:0.0075920001 7:0.002258 8:0.00064899999 12:0.000294 16:0.000535 17:0.000925 18:4.2e-05 19:0.000138 20:0.002967 21:0.007003 22:0.0097899996 23:0.019880001 24:0.002114 26:0.000126 27:0.040649001 28:0.039297 32:0.002751 37:0.0067329998 38:0.0056340001 39:0.001333 40:0.000162 41:0.001417 42:0.016450001 43:0.029021 44:0.074594997 48:0.077404998 57:6.0000002e-06 58:0.007369 59:0.001333 60:0.00049800001 62:4.8000002e-05 63:4.8000002e-05 64:0.017532 #
0.050000000000000002775557561562891 1:0.255099 2:0.003399 3:0.001592 4:0.0034709999 5:0.010252 6:0.024281999 7:0.00021 8:3.6000001e-05 10:0.019640001 11:0.0041080001 17:0.019735999 18:0.001225 19:0.000102 20:0.00057099998 21:0.007369 22:0.046943001 23:0.004402 24:0.00085900002 26:0.012492 27:0.022877 28:6.0000002e-06 33:0.00060700002 37:0.002601 38:0.024329999 39:0.002264 40:6.0000002e-06 42:0.013063 43:0.47795799 44:0.014517 47:1.8000001e-05 48:0.00061300001 49:0.00015599999 53:0.00031800001 54:4.8000002e-05 58:7.2000003e-05 59:0.0046850001 60:0.0079460004 63:0.00037200001 64:0.011754 #
-0.017983739673631760069838492199779 1:0.17520501 2:0.033199001 5:0.000104 6:0.055227999 17:3.5000001e-05 18:8.6e-05 21:2.3000001e-05 22:0.110259 23:0.0071640001 26:5.8000001e-05 27:0.014392 38:0.00011 39:4.6000001e-05 42:6.2999999e-05 43:0.059452001 44:0.0045710001 47:9.2000002e-05 48:0.0087320004 59:0.002501 60:0.00040300001 63:0.0014290001 64:0.526847 #
0.050000000000000002775557561562891 1:0.199696 2:5.3e-05 5:0.003947 6:0.000864 17:0.022036999 18:3.2e-05 21:0.034538999 22:0.063504003 23:0.000128 26:0.00073099998 27:0.00051699998 33:4.9999999e-06 37:1.1e-05 38:0.011776 39:3.7000002e-05 42:0.011557 43:0.043765001 44:6.9000002e-05 47:0.000245 48:0.00016 58:2.7e-05 59:0.015616 60:3.7000002e-05 63:0.016235 64:0.57441097 #
-0.050000000000000002775557561562891 1:0.26613301 2:0.002021 3:0.00047999999 5:0.051019002 6:0.0058559999 7:0.000117 11:0.000128 17:0.0022400001 18:0.000165 19:0.0010770001 20:1.6e-05 21:0.039850999 22:0.068011001 23:0.012475 24:5.3e-05 25:3.2e-05 26:0.001861 27:0.010368 28:1.1e-05 37:0.00089099997 38:0.0041169999 39:0.0026449999 40:1.1e-05 41:0.006085 42:0.0037390001 43:0.50639999 44:5.3e-05 47:0.00067199999 48:0.00023999999 57:0.000112 58:3.2e-05 59:0.0073870001 60:3.7000002e-05 63:0.0038129999 64:0.001851 #
-0.016823811342562056125871094991453 1:0.31835699 2:0.020171 3:0.000176 5:0.0053119999 6:0.019386999 7:0.0084640002 11:0.010997 12:0.00416 17:0.053227 18:0.001424 19:0.00057099998 20:5.3e-05 21:0.037195001 22:0.074496001 23:0.036975998 24:0.00014400001 25:2.1e-05 26:0.00083199999 27:0.010405 28:0.013973 31:2.1e-05 32:0.003003 33:0.000443 34:4.9999999e-06 37:0.0055089998 38:0.028555 39:0.0050130002 40:0.000203 41:9.6000003e-05 42:0.017364999 43:0.083819002 44:0.015184 47:0.000581 48:0.001035 53:0.000155 54:0.00094400003 57:0.00057600002 58:0.024436999 59:0.037803002 60:0.0029279999 61:2.7e-05 63:0.042955 64:0.113003 #
0.050000000000000002775557561562891 1:0.068176001 2:0.027829001 3:0.0046239998 4:0.0012910001 5:0.0083360001 6:0.072324999 7:0.012096 8:0.001173 9:4.9999999e-06 10:0.001365 11:0.000256 12:0.00049599999 16:2.7e-05 17:0.00060299999 18:0.00068300002 19:2.1e-05 20:0.000128 21:0.000165 22:0.107205 23:0.119995 24:0.001456 26:0.003856 27:0.062059 28:0.0063999998 30:0.000235 31:0.000352 32:8.5e-05 38:0.0058129998 39:0.00034699999 40:4.9999999e-06 42:0.018949 43:0.400341 44:0.049284998 47:5.3e-05 48:0.020826999 59:7.9999998e-05 60:0.000149 63:1.6e-05 64:0.0028909999 #
0.050000000000000002775557561562891 1:0.232572 2:0.058398001 3:0.000627 4:6.0000002e-06 5:0.00061400002 6:0.076794997 7:0.00070500001 10:0.000566 11:0.00091 17:0.001343 18:0.00046400001 19:0.00066299998 21:0.001771 22:0.044596002 23:0.0037829999 24:1.2e-05 26:0.00040399999 27:0.0034040001 28:1.2e-05 37:4.8000002e-05 38:0.00029500001 39:0.00013299999 41:6.0000002e-06 42:0.00056000001 43:0.028006 44:0.00046400001 47:0.00094 48:0.000386 59:0.000181 60:0.000271 63:0.001367 64:0.53969902 #
-0.0011484772156453715297175222076476 1:0.50118297 2:0.044691 3:0.0072070002 4:6.0000002e-06 5:0.000535 6:0.025285 7:0.00031800001 8:0.00015599999 12:1.8000001e-05 17:0.033592001 18:0.0021619999 19:0.15745901 20:0.015375 21:0.0061679999 22:0.052354001 23:0.045814 24:0.022516999 26:0.00028800001 27:0.013688 28:0.001285 38:0.00015000001 39:0.00063700002 40:0.002685 42:0.00018 43:0.020523001 44:0.025526 47:0.000204 48:0.011904 59:7.2000003e-05 60:0.00059499999 63:0.000336 64:0.0070870002 #
0.050000000000000002775557561562891 1:0.090299003 2:0.001179 5:0.01488 6:0.0040640002 7:0.00037299999 9:4.9999999e-06 11:0.00017100001 12:4.9999999e-06 17:0.015301 18:0.000208 21:0.052666999 22:0.31204301 23:0.000443 25:1.1e-05 26:0.013579 27:0.00053299998 28:5.3e-05 31:2.1e-05 32:9.6000003e-05 33:2.7e-05 37:0.0028589999 38:0.026896 39:3.7000002e-05 41:0.000336 42:0.134069 43:0.29779199 44:1.6e-05 46:7.5000004e-05 47:0.001632 48:0.000933 53:0.00063999998 54:2.7e-05 57:0.0076850001 58:0.0030449999 59:0.011189 60:4.9999999e-06 61:0.00012300001 62:0.000256 63:0.0023040001 64:0.004123 #
-1.1133300503729515185113996267319e-08 1:0.25524899 2:0.080751002 3:2.4000001e-05 5:0.00072100002 6:0.075470999 7:0.0089370003 8:6.0000002e-06 11:6.0000002e-06 17:0.0038620001 18:0.00094300002 19:2.4000001e-05 21:0.024486 22:0.31037199 23:0.064438 24:1.8000001e-05 26:6.6000001e-05 27:0.030865001 28:0.0095739998 37:2.9999999e-05 38:0.024372 39:0.00027600001 40:3.6000001e-05 42:0.075369 43:0.014847 44:0.010216 47:4.2e-05 48:0.0022760001 58:1.2e-05 59:0.000174 60:7.7999997e-05 63:0.000138 64:0.0063180001 #
0.050000000000000002775557561562891 1:0.41055301 2:0.031366002 3:6.0000002e-06 5:0.036905002 6:0.036708999 7:0.0019710001 8:6.0000002e-06 11:6.0000002e-06 17:0.003879 18:0.000363 21:0.012127 22:0.030346001 23:0.0073540001 24:6.2999999e-05 26:0.00025899999 27:0.0045480002 28:0.001043 37:7.5000004e-05 38:0.011216 39:0.00032299999 42:0.0050090002 43:0.012 44:0.0040520001 47:7.5000004e-05 48:0.0066630002 59:0.000202 60:0.00013299999 63:0.00032299999 64:0.38242701 #
-0.050000000000000002775557561562891 1:0.36772299 2:0.092704996 3:0.0015360001 5:0.0028369999 6:0.081776999 7:0.022343 8:8.3999999e-05 10:0.000108 11:0.011084 17:0.016114 18:0.00017499999 21:0.005651 22:0.012699 23:0.031897999 24:0.0026080001 26:1.8000001e-05 27:0.059964001 28:0.061023999 32:4.2e-05 33:0.000313 37:0.014958 38:0.027241001 39:9.0000001e-05 42:0.001657 43:0.001271 44:0.105289 48:0.049446002 54:0.0038310001 58:0.023976 59:0.00077099999 60:1.2e-05 64:0.00075299997 #
0.050000000000000002775557561562891 1:0.048005 2:0.00376 3:0.010933 4:0.052085001 5:0.00043700001 6:0.000955 7:3.7000002e-05 8:0.0012910001 10:5.9000002e-05 11:0.00056499999 12:4.9999999e-06 15:0.000112 16:0.0029869999 17:0.010955 18:0.001877 19:0.00097599998 20:0.003877 21:0.0082989996 22:0.076245002 23:0.02888 24:0.012272 26:0.002384 27:0.002267 28:0.00093899999 31:5.3e-05 32:0.0015679999 33:3.7000002e-05 34:4.3e-05 35:4.9999999e-06 36:0.000139 37:3.2e-05 38:0.086608 39:0.006571 40:0.01264 42:0.096587002 43:0.401216 44:0.0088050002 47:0.00060299999 48:0.0045440001 53:4.9999999e-06 54:0.000128 55:0.000101 56:0.00013299999 58:0.000155 59:0.056933001 60:0.0095570004 63:0.010709 64:0.032623999 #
-0.010767062905060242883337195962667 1:0.13609 2:0.0024979999 5:0.013411 6:0.121616 10:0.0026370001 11:0.0012309999 15:6.0000002e-06 17:6.0000002e-06 22:0.189429 23:0.0098080002 26:0.001087 27:0.017921999 31:2.9999999e-05 32:1.8000001e-05 38:6.0000002e-06 39:1.2e-05 42:2.9999999e-05 43:0.099411003 44:0.000619 47:0.0021200001 48:0.0076279999 59:7.7999997e-05 60:6.0000002e-06 63:0.00015000001 64:0.39414999 #
0.050000000000000002775557561562891 1:0.59546101 2:0.026659001 3:0.0022509999 4:0.00034699999 5:0.004036 6:0.023329001 7:4.8000002e-05 8:1.8000001e-05 10:0.000228 17:0.003725 18:0.000719 19:6.0000002e-06 21:0.0054009999 22:0.110263 23:0.0036470001 24:2.9999999e-05 25:1.8000001e-05 26:0.000114 27:0.0023050001 28:1.8000001e-05 38:0.016611001 39:0.00064099999 41:2.9999999e-05 42:0.003425 43:0.014144 44:0.00084400002 46:3.6000001e-05 47:0.00012 48:0.00021 59:0.003515 60:0.000186 62:1.8000001e-05 63:0.0036530001 64:0.177946 #
-0.050000000000000002775557561562891 1:0.402421 2:0.015109 3:1.1e-05 5:0.002907 6:0.0060800002 7:0.00023999999 8:1.6e-05 11:4.9999999e-06 12:5.9000002e-05 16:3.2e-05 17:0.014139 18:0.016555 21:0.001749 22:0.07344 23:0.0013070001 24:2.1e-05 26:0.00075200002 27:0.001211 28:0.000107 32:4.3e-05 38:0.0023310001 39:0.00074699998 42:0.001595 43:0.013104 44:0.00072499999 47:0.000325 48:0.001664 55:4.9999999e-06 59:0.011547 60:0.00076299999 63:0.001061 64:0.42993101 #
0.050000000000000002775557561562891 1:0.036256 2:0.012469 3:0.010549 4:0.048811 5:0.000955 6:0.0096270004 7:0.001045 8:0.001925 10:0.001365 11:0.000176 12:0.001205 16:0.0011840001 17:0.001179 18:0.00112 19:0.001045 20:0.0016430001 21:0.00081599999 22:0.104565 23:0.024805 24:0.016053 26:0.0098240003 27:0.037739001 28:0.00091200002 30:1.1e-05 31:0.012235 32:0.00027700001 34:4.9999999e-06 37:1.6e-05 38:0.003824 39:0.002165 40:0.003093 42:0.0023089999 43:0.40200499 44:0.026843 47:0.0026130001 48:0.024607999 58:0.00051699998 59:0.0056429999 60:0.0047149998 62:0.000235 63:0.011472 64:0.172144 #
-0.050000000000000002775557561562891 1:0.53910398 2:0.016155001 3:0.001419 4:0.00091200002 5:0.0096850004 6:0.019259 7:0.003733 8:0.000187 10:0.00028800001 11:0.001035 12:0.000245 15:4.9999999e-06 16:0.000155 17:0.014427 18:0.00074699998 19:0.00012300001 20:9.1000002e-05 21:0.014869 22:0.149739 23:0.0070509999 24:0.000325 25:4.9999999e-06 26:0.002693 27:0.0034990001 28:0.00088499999 31:1.1e-05 32:0.0027950001 33:7.5000004e-05 34:1.6e-05 37:0.00025099999 38:0.0073389998 39:0.000512 40:8.5e-05 42:0.0068910001 43:0.028864 44:0.000197 47:0.000971 48:0.00092800002 54:4.3e-05 55:1.1e-05 58:0.00029900001 59:0.0023630001 60:6.9000002e-05 63:0.001621 64:0.160027 #
0.050000000000000002775557561562891 1:0.54339898 2:0.100955 3:0.013351 4:0.002288 5:0.002877 6:0.082000002 7:0.027218999 8:0.0098440005 9:1.8000001e-05 10:0.00015000001 11:0.00066700001 12:0.010222 15:4.2e-05 16:0.00030000001 17:0.010414 18:0.0048830002 19:7.7999997e-05 20:6.0000002e-06 21:0.00074500003 22:0.052565001 23:0.023574 24:0.001886 25:4.8000002e-05 26:0.001453 27:0.015411 28:0.0080420002 29:1.8000001e-05 30:2.4000001e-05 31:0.00019799999 32:0.001099 33:0.001646 34:0.00051699998 35:4.8000002e-05 36:6.0000002e-06 37:0.00064300001 38:0.004468 39:0.001724 40:0.000126 42:0.000787 43:0.0084619997 44:0.0049970001 46:5.4e-05 47:0.001057 48:0.0075019998 49:0.000126 50:1.2e-05 51:0.00025799999 52:2.9999999e-05 53:0.001526 54:0.0023660001 55:0.00060700002 56:0.00019799999 57:0.000222 58:0.001237 59:0.003339 60:0.001405 62:0.00054099999 63:0.003213 64:0.039105002 #
-0.031788774438336275807159836404026 1:0.34924299 2:0.049982 3:0.00036599999 4:6.0000002e-06 5:0.01039 6:0.051615998 7:0.0043179998 8:1.2e-05 10:2.9999999e-05 11:6.6000001e-05 17:0.0035019999 18:0.0036460001 19:1.8000001e-05 21:0.0090330001 22:0.33596399 23:0.033128999 24:6.0000002e-06 26:0.00076299999 27:0.016365999 28:0.00036000001 32:6.6000001e-05 37:2.9999999e-05 38:0.00036000001 39:0.001453 42:0.00024600001 43:0.035909999 44:0.00382 47:3.6000001e-05 48:0.028703 59:0.000138 60:4.8000002e-05 63:0.000162 64:0.060210001 #
0.050000000000000002775557561562891 1:0.111084 22:0.21246 43:0.14567199 64:0.53078401 #
-0.050000000000000002775557561562891 1:0.56880099 2:0.163084 3:6.0000002e-06 5:0.041951999 6:0.065090001 7:0.013355 8:7.7999997e-05 11:0.00038000001 17:0.00075299997 18:9.0000001e-05 21:0.034265 22:0.018831 23:0.021651 24:6.0000002e-06 26:0.00028899999 27:0.028741 28:0.0065540001 32:0.00021100001 33:5.4e-05 37:0.000108 38:0.00013299999 39:0.00012 42:4.8000002e-05 43:0.01562 44:0.01238 48:0.0062409998 59:2.9999999e-05 60:6.0000002e-06 63:1.8000001e-05 64:0.001102 #
0.050000000000000002775557561562891 1:0.51955998 2:0.0041629998 5:0.0078309998 6:0.021981999 7:0.00038000001 17:0.043818999 18:3.6000001e-05 21:0.046101999 22:0.056398001 23:0.091848999 26:0.000193 27:0.019404 28:6.0000002e-06 33:0.00012 37:0.0065779998 38:0.016023999 41:0.00051799999 42:0.079457998 43:0.0049700001 46:6.0000002e-06 47:0.000114 48:6.0000002e-06 49:3.6000001e-05 53:1.2e-05 57:0.000145 58:0.018319 59:0.0067469999 62:0.002964 63:0.051801 64:0.00045799999 #
-0.029798274767244947724975645542145 1:0.045028999 2:0.0045759999 3:2.7e-05 5:0.00037299999 6:0.001515 7:0.000181 8:4.9999999e-06 17:0.015493 18:0.0023409999 19:4.9999999e-06 21:0.0094720004 22:0.16075701 23:0.0048690001 24:0.000197 26:0.000155 27:0.0021919999 28:0.003397 32:1.1e-05 38:0.01336 39:0.001669 42:0.0024049999 43:0.17295501 44:0.023984 47:0.00055499998 48:0.015722999 59:0.0080909999 60:0.0053170002 63:0.00065599999 64:0.50468802 #
0.050000000000000002775557561562891 1:0.048478998 2:0.037845999 5:6.0000002e-06 6:0.053822 7:0.0093909996 8:6.0000002e-06 11:0.001107 12:6.0000002e-06 21:6.0000002e-06 22:0.021881999 23:0.079249002 26:6.0000002e-06 27:0.109509 28:0.081083 32:0.001456 43:0.0077570002 44:0.081354998 47:4.7000001e-05 48:0.045308001 63:0.001355 64:0.42032501 #
-0.050000000000000002775557561562891 1:0.52985603 2:0.059976 5:0.000168 6:0.112898 7:0.000228 17:0.013527 18:2.4000001e-05 21:0.0024550001 22:0.147222 23:0.097790003 27:0.035209998 43:0.00064699998 #
-0.015955582442746418792012264020741 1:0.13706701 2:0.029083 3:0.015029 4:0.0091949999 5:0.003696 6:0.060346998 7:0.015285 8:0.001248 9:0.000101 10:0.001771 11:0.0073600002 12:0.005291 14:1.6e-05 15:1.6e-05 16:0.00053899997 17:0.0091150003 18:0.001248 19:0.000224 20:0.0024959999 21:0.0077280002 22:0.081588998 23:0.030587001 24:0.002997 25:5.9000002e-05 26:0.0086770002 27:0.079839997 28:0.013291 29:4.9999999e-06 30:0.000128 31:0.000459 32:0.0019950001 33:0.001045 34:6.4e-05 37:0.003824 38:0.002992 39:0.0010770001 40:0.00023999999 41:0.000619 42:0.003424 43:0.232181 44:0.021957001 47:0.0025549999 48:0.021322999 53:0.00029900001 54:0.000128 55:4.9999999e-06 57:0.0017810001 58:0.001061 59:0.007429 60:0.001413 62:0.00013299999 63:0.0042130002 64:0.165755 #
0.050000000000000002775557561562891 1:0.47062001 5:3.7000002e-05 6:0.015755 22:0.34234399 27:0.004896 43:0.13789 47:6.0000002e-06 48:0.003178 64:0.025276 #
-0.050000000000000002775557561562891 1:0.137848 2:0.003756 5:4e-06 6:0.0061880001 17:3.2e-05 18:0.00069999998 21:4e-06 22:0.3427 23:0.0023680001 26:3.6000001e-05 27:0.002324 38:8e-06 39:0.0013079999 42:8e-06 43:0.25851199 44:0.000164 47:1.9999999e-05 48:0.002168 59:9.6000003e-05 60:0.000108 64:0.241648 #
0.050000000000000002775557561562891 1:0.082341999 2:0.054823 3:0.0096159996 4:0.0048529999 5:0.000432 6:0.346625 7:0.0022760001 8:2.4000001e-05 11:2.9999999e-05 12:5.9999998e-05 17:5.4e-05 18:0.00014400001 19:0.00036599999 20:0.001447 21:3.6000001e-05 22:0.011069 23:0.0086129997 24:0.0093029998 27:0.00072100002 28:6.6000001e-05 38:7.7999997e-05 39:9.6000003e-05 40:0.000264 42:6.0000002e-06 43:0.050432 44:0.089808002 47:6.0000002e-06 48:0.056853 59:0.0072189998 60:0.034492001 64:0.227844 #
0.050000000000000002775557561562891 1:0.403696 22:0.42395201 43:0.118603 64:0.053748999 #
-0.050000000000000002775557561562891 1:0.042980999 2:0.001035 5:0.000795 6:0.004896 7:0.000416 11:0.00036800001 12:0.000197 16:6.9000002e-05 17:0.000139 18:0.00083199999 21:4.9999999e-06 22:0.271797 23:9.1000002e-05 26:0.022709001 27:0.114837 28:4.3e-05 32:0.00027700001 38:3.7000002e-05 39:0.000101 42:5.3e-05 43:0.53729099 44:4.9999999e-06 47:0.000283 48:0.00066700001 59:3.2e-05 64:4.3e-05 #
0.050000000000000002775557561562891 1:0.112821 2:0.111084 6:0.144916 7:0.22696 8:0.000183 11:0.066549003 12:0.034256 23:0.001392 24:7.0000001e-06 27:0.013275 28:0.18274701 32:0.000103 43:2.2e-05 44:0.014293 48:0.029114 64:0.062277999 #
-0.047847241390542194494628347456455 1:0.229358 2:0.0056099999 5:0.014447 6:0.060502999 7:0.000138 17:0.00098699995 18:0.000195 21:0.101579 22:0.502428 23:0.021880999 24:0.00028899999 26:0.000264 27:0.016024999 28:0.0055470001 32:1.8999999e-05 38:0.000252 39:9.4000003e-05 42:0.000283 43:0.016125999 44:0.0084340004 47:3.1e-05 48:0.0045469999 59:0.00030799999 60:1.8999999e-05 63:0.000201 64:0.010434 #
0.050000000000000002775557561562891 1:0.20977899 22:0.44931901 43:0.25558299 64:0.085318998 #
-0.035433406903907734009084862236705 1:0.136811 2:0.17580301 3:0.00058699999 6:0.083935998 7:0.220112 8:0.00026100001 11:0.023008 12:0.025675001 17:0.00033099999 18:0.00072499999 19:4.9999999e-06 21:0.00026100001 22:0.0044590002 23:0.0092160003 24:3.2e-05 26:4.9999999e-06 27:0.020651 28:0.126192 32:0.000235 37:5.9000002e-05 38:0.001136 39:0.000229 42:0.00037299999 43:0.0099250004 44:0.0072110002 47:1.6e-05 48:0.001936 54:4.9999999e-06 58:0.00038400001 59:0.0053710002 60:0.00087500003 62:4.9999999e-06 63:0.0116 64:0.132571 #
0.050000000000000002775557561562891 1:0.55667698 2:0.006608 3:0.000485 4:3.7000002e-05 5:0.033151999 6:0.015781 7:0.00068300002 8:4.9999999e-06 10:0.000235 11:0.00013299999 12:2.7e-05 17:0.0037760001 18:0.00068300002 19:4.9999999e-06 20:1.1e-05 21:0.0078670001 22:0.059103999 23:0.001627 24:2.7e-05 26:0.0028369999 27:0.002752 28:0.00038899999 31:5.3e-05 32:4.3e-05 37:4.9999999e-06 38:0.0062449998 39:0.00076800003 42:0.007675 43:0.044202998 44:0.003333 47:0.00060299999 48:0.0042130002 59:0.0044530001 60:0.00056000001 63:0.004464 64:0.23048 #
-0.050000000000000002775557561562891 1:0.167989 2:0.018747 5:0.00168 6:0.032885 7:0.001504 11:4.8000002e-05 17:0.0030769999 18:0.001835 21:0.012064 22:0.396368 23:0.011451 26:0.002048 27:0.008165 28:4.9999999e-06 38:0.066703998 39:0.001408 42:0.0093649998 43:0.209168 44:0.00072499999 47:0.006021 48:0.002075 59:0.0052530002 60:0.000245 63:0.021322999 64:0.019845 #
0.050000000000000002775557561562891 1:0.0089370003 2:0.0021200001 3:9.6000003e-05 4:1.8000001e-05 5:2.4000001e-05 6:0.032768998 7:0.001411 8:4.8000002e-05 12:6.0000002e-06 17:0.00085900002 18:0.00021 21:0.00039599999 22:0.103081 23:0.19608399 24:9.0000001e-05 26:0.000114 27:0.243039 28:0.003574 33:1.8000001e-05 37:0.000432 38:0.000186 39:0.000114 42:0.0095680002 43:0.154643 44:0.055927999 47:6.0000002e-06 48:0.011724 53:0.000204 54:6.0000002e-06 57:0.00079899997 58:0.0085349996 59:0.083440997 60:6.6000001e-05 61:6.0000002e-06 62:9.0000001e-05 63:0.014583 64:0.066775002 #
-0.050000000000000002775557561562891 1:0.52827102 2:0.00078900001 5:0.003083 6:0.010771 7:1.8999999e-05 10:4.7000001e-05 11:0.00015000001 17:0.010282 18:0.000329 21:0.000902 22:0.13672 26:0.001165 27:0.0033179999 28:0.00041400001 32:2.8e-05 33:3.7999998e-05 34:5.6000001e-05 38:0.002387 39:0.000226 42:4.7000001e-05 43:0.010648 44:3.7999998e-05 47:0.00055499998 48:0.00082700001 59:0.0014290001 60:0.000113 63:0.00016 64:0.28718999 #
0.050000000000000002775557561562891 1:0.58269101 2:0.035188999 3:0.040925 4:0.031339001 5:0.0021319999 6:0.00164 7:0.000216 8:0.00033000001 17:0.002474 18:0.0012910001 19:0.00042 20:0.001027 21:0.0060720001 22:0.076191999 23:0.0076819998 24:0.002817 25:1.8000001e-05 26:0.001219 27:0.001682 28:0.000126 37:2.9999999e-05 38:0.0029849999 39:0.001682 40:0.00072100002 42:0.0052370001 43:0.057050999 44:0.004096 46:1.8000001e-05 47:0.00047999999 48:0.00046800001 58:2.4000001e-05 59:0.0034050001 60:0.001327 62:1.2e-05 63:0.0055499999 64:0.121429 #
-0.050000000000000002775557561562891 1:0.055829 2:0.015536 3:4.9999999e-06 5:0.005808 6:0.066160001 7:0.00033099999 10:3.7000002e-05 11:2.1e-05 17:0.001349 18:0.00070899999 21:0.00076299999 22:0.124437 23:0.13093901 26:0.0017969999 27:0.240587 28:0.001664 31:4.9999999e-06 32:1.1e-05 33:1.1e-05 34:1.1e-05 38:0.0026720001 39:0.00046400001 42:0.002208 43:0.21672 44:0.035535999 47:0.00042699999 48:0.036949001 59:0.0038930001 60:0.00017100001 63:0.0029490001 64:0.052000001 #
0.050000000000000002775557561562891 1:0.012885 2:0.028572001 5:0.00035399999 6:0.058371998 17:1.2e-05 18:6.0000002e-06 21:0.000118 22:0.31038901 23:0.03813 26:0.024254 27:0.112537 38:0.001251 42:0.012496 43:0.271422 44:0.001717 47:0.010968 48:0.011634 59:0.002201 63:0.0139 64:0.088785 #
-0.050000000000000002775557561562891 1:0.5 2:0.001012 5:0.004739 6:0.00293 17:0.044594999 18:0.0070500001 21:0.0077459998 22:0.12610599 23:0.001564 25:4.9999999e-06 26:0.0051989998 27:0.002355 31:3.4000001e-05 33:4.9999999e-06 34:4.9999999e-06 37:0.001103 38:0.022795999 39:0.001683 41:0.0045850002 42:0.074699998 43:0.046326 44:0.001683 45:4.9999999e-06 46:0.001746 47:0.005386 48:0.001314 57:2.9000001e-05 58:0.0071749999 59:0.029329 60:0.004125 62:0.0050360002 63:0.037822999 64:0.051812999 #
0.050000000000000002775557561562891 1:0.52276301 2:0.058517002 3:0.0079279998 4:0.001952 5:0.00072100002 6:0.022054 7:0.001195 8:0.00027600001 17:0.097694002 18:0.001027 19:0.00025799999 20:6.0000002e-06 21:0.112751 22:0.060924999 23:0.0082160002 24:0.0012610001 26:0.00076299999 27:0.0069129998 28:0.00069100002 37:0.011495 38:0.0030749999 39:0.000138 41:0.001495 42:0.0041439999 43:0.026846999 44:0.0076520001 47:0.00054099999 48:0.0059580002 53:0.001165 54:6.0000002e-06 57:0.0023360001 58:0.00079899997 59:0.00093699998 60:0.00014400001 61:0.001724 62:0.001838 63:0.001381 64:0.022414001 #
-0.050000000000000002775557561562891 1:0.022603 2:0.000107 5:0.015381 6:0.024224 10:0.000421 17:0.000101 21:0.0029120001 22:0.28834701 23:0.104917 26:0.017696001 27:0.075019002 38:0.001205 39:1.6e-05 42:0.00049599999 43:0.256064 44:0.001333 47:0.0015519999 48:0.00092800002 59:0.045364998 60:0.021919999 63:0.00021899999 64:0.119173 #
-0.050000000000000002775557561562891 1:0.35664499 2:0.000512 5:0.107397 6:0.018288 7:0.001157 9:0.0031950001 10:0.0049120001 11:0.000619 12:4.9999999e-06 14:3.2e-05 17:0.00046899999 18:0.00021899999 21:0.0099889999 22:0.093819 23:0.0033489999 26:0.023824001 27:0.017717 28:0.001616 31:1.1e-05 32:0.00028800001 38:0.00059200003 39:0.00061300001 42:0.0051250001 43:0.035328001 44:0.0025549999 47:0.022944 48:0.0090129999 59:0.000224 60:0.00090699998 63:0.0051199999 64:0.27351499 #
0.050000000000000002775557561562891 1:0.069146998 2:0.0090290001 5:0.001248 6:0.0076270001 17:0.001499 18:0.00023999999 21:0.001312 22:0.24387699 23:0.0097169997 26:0.0037169999 27:0.044372998 38:0.0032319999 39:0.00038400001 42:0.0052160001 43:0.37003699 44:0.001008 47:0.000165 48:0.00062900002 58:4.9999999e-06 59:0.0031630001 60:3.2e-05 63:0.0033170001 64:0.22102401 #
0.050000000000000002775557561562891 1:0.55403 2:0.013538 3:0.0012309999 4:1.8000001e-05 5:0.035994001 6:0.071416996 7:0.0051830001 8:0.000444 10:1.8000001e-05 11:0.00060700002 12:0.002757 17:0.0042579998 18:0.00023400001 21:0.009207 22:0.178847 23:0.021219 24:1.2e-05 26:0.00055300002 27:0.016793 28:0.015405 32:0.0028349999 37:2.4000001e-05 38:0.0013989999 39:0.00028800001 40:6.0000002e-06 42:0.0025470001 43:0.043465 44:0.001321 47:3.6000001e-05 48:0.0026789999 59:0.00152 60:0.00152 62:6.0000002e-06 63:0.00077500002 64:0.0098139998 #
-0.050000000000000002775557561562891 1:0.028372999 2:0.001632 5:0.0049279998 6:0.017364999 7:4.9999999e-06 17:0.00092299999 18:3.7000002e-05 21:0.0044430001 22:0.128923 23:0.003573 25:0.00038899999 26:0.025376 27:0.047995001 28:4.9999999e-06 31:4.9999999e-06 32:3.2e-05 37:1.1e-05 38:0.000181 39:9.6000003e-05 41:0.00128 42:0.003819 43:0.352992 44:0.005173 47:0.041898999 48:0.053451002 58:2.7e-05 59:0.001915 60:2.7e-05 63:0.013563 64:0.261563 #
0.050000000000000002775557561562891 1:0.069328003 2:0.00062900002 3:4.3e-05 5:0.000528 6:0.000443 7:7.9999998e-05 11:4.9999999e-06 17:0.038415998 18:0.0013070001 19:3.7000002e-05 21:0.031184001 22:0.027611 23:0.00092800002 24:0.000107 26:3.2e-05 27:0.000512 33:0.00038899999 34:4.9999999e-06 37:0.068336003 38:0.234832 39:0.00076800003 40:5.9000002e-05 41:4.9999999e-06 42:0.006267 43:0.025115 44:0.002688 47:8.5e-05 48:0.002715 53:0.18756799 54:0.002261 57:0.032747 58:0.235707 59:0.010144 60:0.000635 63:0.0026080001 64:0.015876999 #
-0.050000000000000002775557561562891 1:0.546574 2:0.041157 3:8.0999998e-05 5:6.2999999e-05 6:0.045380998 7:0.00081599999 8:0.00050199998 10:9.0000003e-06 11:1.8000001e-05 12:0.000161 16:2.7e-05 17:0.002789 18:0.006726 21:1.8000001e-05 22:0.244242 23:0.017453 24:0.001803 26:1.8000001e-05 27:0.034664001 28:0.0057669999 32:0.002054 38:0.00017 39:0.00063700002 43:0.027184 44:0.0065290001 47:2.7e-05 48:0.006906 59:9.0000001e-05 60:0.000224 63:2.7e-05 64:0.0078830002 #
0.050000000000000002775557561562891 1:0.55878901 2:0.046882998 3:6.4e-05 5:0.0052629998 6:0.033456001 7:0.013865 8:0.001064 11:0.00026299999 12:0.000871 17:0.0044209999 18:0.00054400001 19:6.0000002e-06 21:0.0046549998 22:0.095889002 23:0.0060410001 24:5.3e-05 25:6.0000002e-06 26:0.0014149999 27:0.007094 28:0.003058 32:0.00014 33:6.0000002e-06 37:1.2e-05 38:0.001678 39:0.000333 42:0.001211 43:0.047350999 44:0.003082 47:0.001164 48:0.0061349999 59:0.00024600001 60:2.9000001e-05 63:0.00085399998 64:0.15405799 #
-0.043688900381540551887127321606386 1:0.14020801 2:0.052506998 3:0.0023729999 5:0.000128 6:0.013168 7:0.016651001 8:2.1e-05 11:2.7e-05 12:4.3e-05 17:0.017162999 18:0.0026769999 19:1.1e-05 21:0.0039360002 22:0.022853 23:0.028672 24:0.000101 26:8.5e-05 27:0.0096270004 28:0.0042190002 31:4.9999999e-06 32:0.00017100001 33:0.00059700001 34:1.1e-05 37:0.0068109999 38:0.037909001 39:0.001829 42:0.0091310004 43:0.022484999 44:0.011189 47:9.1000002e-05 48:0.0090990001 53:4.8000002e-05 54:0.008955 55:6.9000002e-05 58:0.38740301 59:0.116208 60:0.001168 62:0.000155 63:0.021109 64:0.051088002 #
0.050000000000000002775557561562891 1:0.037370998 2:0.003451 3:4.8000002e-05 5:0.00019200001 6:0.003328 7:0.0024850001 8:4.3e-05 11:0.0029279999 12:0.0028850001 16:0.00014400001 17:0.012907 18:0.00077899999 19:9.1000002e-05 21:0.006091 22:0.261691 23:0.0077010002 24:2.1e-05 26:0.00031999999 27:0.0054879999 28:0.001067 32:0.001829 37:0.000107 38:0.017493 39:0.00065100001 42:0.016938999 43:0.092624001 44:0.0030400001 47:0.00089600001 48:0.0052430001 58:0.27857599 59:0.167541 60:0.000181 63:0.010981 64:0.054869 #
-0.050000000000000002775557561562891 1:0.41692901 2:0.003694 3:0.00032799999 4:0.00027300001 5:0.040240001 6:0.047596 7:4.8999998e-05 10:0.011541 11:0.00062800001 15:1.6e-05 17:0.0047539999 18:0.00018 19:3.3e-05 20:0.00018 21:0.011967 22:0.116508 23:0.0027099999 24:0.00037200001 26:0.0064320001 27:0.0083609996 28:7.1000002e-05 31:0.00041000001 32:4.9999999e-06 38:0.057131 39:0.00028400001 40:8.7e-05 42:0.040720999 43:0.118257 44:0.0060109999 47:0.00091800001 48:0.0070270002 58:4.9999999e-06 59:0.003213 60:0.000224 63:0.0027429999 64:0.090098001 #
0.050000000000000002775557561562891 1:0.56708699 2:0.014787 3:4.8000002e-05 4:5.9999998e-05 5:0.043033 6:0.037434999 7:0.000336 8:1.2e-05 10:2.9999999e-05 11:6.0000002e-06 17:0.001435 18:0.000474 19:6.0000002e-06 20:2.4000001e-05 21:0.0099280002 22:0.074005999 23:0.005628 24:2.9999999e-05 26:0.013351 27:0.0053209998 28:7.7999997e-05 37:3.6000001e-05 38:0.00397 39:0.000757 40:1.8000001e-05 42:0.0083299996 43:0.109556 44:0.003147 47:0.001411 48:0.001039 53:1.2e-05 55:1.8000001e-05 58:0.00039599999 59:0.040637001 60:0.0074530002 63:0.0077180001 64:0.042383999 #
-0.050000000000000002775557561562891 1:0.093717001 2:0.005349 3:0.000117 4:1.1e-05 5:0.002048 6:0.015211 7:0.000432 10:4.9999999e-06 11:0.00042699999 12:2.1e-05 17:0.042447999 18:0.00039500001 19:3.7000002e-05 20:4.9999999e-06 21:0.051243 22:0.19354101 23:0.0039360002 24:2.7e-05 26:0.002357 27:0.015029 28:0.001611 31:1.1e-05 32:0.00017100001 33:0.000224 37:0.003515 38:0.029541001 39:0.000107 40:1.1e-05 42:0.008587 43:0.038431998 44:0.0036269999 47:0.0025229999 48:0.014635 53:0.044884998 54:0.024107 57:2.1e-05 58:0.231856 59:0.093307003 60:0.000101 63:0.037099 64:0.039275002 #
0.050000000000000002775557561562891 1:0.089739002 2:0.0028909999 3:0.00089600001 4:0.000117 5:0.021552 6:0.044682998 7:0.00076800003 8:0.00052300002 10:0.002603 11:0.00029900001 12:7.5000004e-05 16:2.1e-05 17:0.007152 18:0.00031500001 19:0.000139 20:1.1e-05 21:0.003179 22:0.090112001 23:0.036490999 24:0.001312 25:4.9999999e-06 26:0.0048210002 27:0.071589001 28:0.00031999999 31:1.1e-05 32:0.00012300001 33:0.0063149999 34:4.3e-05 35:1.1e-05 37:0.002539 38:0.0074720001 39:0.00095999998 40:6.9000002e-05 41:1.1e-05 42:0.003243 43:0.103621 44:0.000955 46:0.000176 47:0.00042699999 48:0.00075200002 53:0.00021300001 54:0.001771 57:4.9999999e-06 58:0.40267199 59:0.025845001 60:0.00023999999 62:4.9999999e-06 63:0.0062609999 64:0.056651 #
-0.050000000000000002775557561562891 1:0.557989 22:0.14566401 43:0.13238899 64:0.163957 #
-0.0030617824240968261051420995499939 1:0.142005 2:0.0083999997 3:5.3e-05 4:4.9999999e-06 5:0.0041390001 6:0.0035089999 7:0.00050700002 11:2.1e-05 12:4.9999999e-06 17:0.0083569996 18:0.00085299998 19:2.1e-05 21:0.028155001 22:0.130859 23:0.011509 24:6.4e-05 25:0.00037299999 26:0.0052800002 27:0.0099680005 28:0.002933 32:1.1e-05 33:5.3e-05 37:0.00093899999 38:0.01416 39:0.0031950001 41:0.000352 42:0.023770999 43:0.046133 44:0.00272 46:9.1000002e-05 47:0.0066450001 48:0.0056369998 53:5.3e-05 57:0.000336 58:0.47047499 59:0.010197 60:0.00049100001 62:0.0040529999 63:0.029173 64:0.024496 #
0.050000000000000002775557561562891 1:0.232373 2:0.002421 5:0.002112 6:0.0051250001 17:0.0084960004 18:0.0047089998 19:4.9999999e-06 21:0.0044269999 22:0.37699699 23:0.0040429998 26:0.00067199999 27:0.002261 38:0.0034080001 39:0.00051699998 40:1.6e-05 42:0.0019039999 43:0.018021001 44:0.00089099997 47:5.9000002e-05 48:0.000485 58:4.9999999e-06 59:0.00034100001 60:8.5e-05 63:0.000187 64:0.330437 #
0.050000000000000002775557561562891 1:0.18116701 2:0.000321 5:6.5e-05 6:0.00022 7:6.0000002e-06 17:0.39538699 18:0.00031 21:0.16085701 22:0.014988 23:0.001006 26:2.9999999e-05 27:0.00049399998 28:3.6000001e-05 37:0.087327003 38:0.050797999 39:0.00030399999 41:1.2e-05 42:0.013577 43:0.00722 44:0.000298 47:3.6000001e-05 48:8.2999999e-05 53:2.9999999e-05 54:0.000589 57:1.2e-05 58:0.044452 59:0.023506001 60:8.9000001e-05 62:1.2e-05 63:0.0079049999 64:0.0088630002 #
-0.050000000000000002775557561562891 1:0.203637 2:0.010336 3:3.7000002e-05 5:0.0062830001 6:0.028501 7:6.4e-05 17:0.002875 18:0.0017810001 19:4.9999999e-06 21:0.0041809999 22:0.30713099 23:0.012181 24:0.00012300001 26:0.0038719999 27:0.010773 28:0.00067699997 38:0.0026130001 39:0.00067699997 42:0.0024270001 43:0.094586998 44:0.0083999997 47:0.001168 48:0.0083410004 54:2.1e-05 59:0.00144 60:0.000149 63:0.001525 64:0.286192 #
0.050000000000000002775557561562891 1:0.227892 22:0.219129 43:0.41570601 64:0.137273 #
-0.015668841498694519032142125070095 1:0.133883 2:0.0051679998 5:0.001301 6:0.0059890002 17:0.010283 18:0.00144 21:0.0094720004 22:0.198752 23:0.072596997 26:0.001621 27:0.064011 37:4.9999999e-06 38:0.0078609996 39:0.0024639999 42:0.0032269999 43:0.18736 44:0.004683 47:6.4e-05 48:0.00296 58:4.9999999e-06 59:0.002389 60:0.00057600002 63:0.0014449999 64:0.28244299 #
-0.050000000000000002775557561562891 1:0.17020001 22:0.222452 43:0.42685601 64:0.180492 #
0.050000000000000002775557561562891 1:0.25525299 2:0.018501 3:3.2e-05 5:0.0039519998 6:0.16882101 7:0.058688 8:0.000112 10:0.000235 11:0.01384 12:0.001611 17:0.001424 18:0.000117 21:0.001067 22:0.026651001 23:0.035066999 24:4.9999999e-06 26:0.000224 27:0.048448 28:0.001685 32:0.000117 33:7.9999998e-05 37:0.0054930001 38:0.0043890001 39:5.9000002e-05 41:4.9999999e-06 42:0.003301 43:0.004555 44:0.00096500001 47:0.00021300001 48:0.0050349999 53:5.9000002e-05 54:0.00091200002 57:1.6e-05 58:0.168437 59:0.026757 60:1.6e-05 62:4.9999999e-06 63:0.13041601 64:0.013435 #
0.050000000000000002775557561562891 1:0.152821 22:0.23512501 43:0.32823199 64:0.28382099 #
-0.0071040228531273896805942058563232 1:0.157489 2:0.003123 5:0.013784 6:0.0077360002 7:8.3999999e-05 10:6.0000002e-06 11:4.2e-05 12:0.00015000001 16:0.00038400001 17:0.081261002 18:0.0065649999 21:0.070384003 22:0.41495499 23:0.027255001 24:0.00019799999 26:0.010541 27:0.034835 28:0.001892 32:0.003664 37:0.001682 38:0.0051230001 39:0.0023119999 40:6.0000002e-06 41:2.4000001e-05 42:0.002715 43:0.088192001 44:0.0081439996 47:0.00088900002 48:0.0093329996 53:0.00063099997 54:9.0000001e-05 57:0.0014590001 58:0.001706 59:0.002661 60:0.00060700002 61:4.8000002e-05 62:0.000168 63:0.001712 64:0.038150001 #
0.050000000000000002775557561562891 1:0.210518 2:0.019693 3:0.000163 4:5.9999998e-05 5:0.00056000001 6:0.42676499 7:0.002663 8:4.2e-05 10:6.0000002e-06 11:2.4000001e-05 12:1.2e-05 17:9.6000003e-05 18:9.0000001e-05 21:6.6000001e-05 22:0.061758999 23:0.032547999 24:2.9999999e-05 26:0.000283 27:0.085440002 28:0.00054799998 32:2.9999999e-05 34:1.8000001e-05 38:2.9999999e-05 39:6.6000001e-05 42:2.9999999e-05 43:0.026928 44:0.037083998 47:0.00044 48:0.073940001 59:1.2e-05 60:7.2000003e-05 63:2.4000001e-05 64:0.019958001 #
